{"learner":{"attributes":{"scikit_learn":"{\"_estimator_type\": \"regressor\"}"},"feature_names":["agua_basica","tmax_promedio","tmin_promedio","precipitacion","humedad_promedio","densidad_poblacion","tmax_lag1","tmax_lag2","tmax_lag3","tmin_lag1","tmin_lag2","tmin_lag3","precipitacion_lag1","precipitacion_lag2","precipitacion_lag3","humedad_lag1","humedad_lag2","humedad_lag3","incidencia_lag1","incidencia_lag2","incidencia_lag3","incidencia_vecinos_lag1","incidencia_vecinos_lag2","incidencia_vecinos_lag3"],"feature_types":["float","float","float","float","float","float","float","float","float","float","float","float","float","float","float","float","float","float","float","float","float","float","float","float"],"gradient_booster":{"model":{"cats":{"enc":[],"feature_segments":[],"sorted_idx":[]},"gbtree_model_param":{"num_parallel_tree":"1","num_trees":"150"},"iteration_indptr":[0,1,2,3,4,5,6,7,8,9,10,11,12,13,14,15,16,17,18,19,20,21,22,23,24,25,26,27,28,29,30,31,32,33,34,35,36,37,38,39,40,41,42,43,44,45,46,47,48,49,50,51,52,53,54,55,56,57,58,59,60,61,62,63,64,65,66,67,68,69,70,71,72,73,74,75,76,77,78,79,80,81,82,83,84,85,86,87,88,89,90,91,92,93,94,95,96,97,98,99,100,101,102,103,104,105,106,107,108,109,110,111,112,113,114,115,116,117,118,119,120,121,122,123,124,125,126,127,128,129,130,131,132,133,134,135,136,137,138,139,140,141,142,143,144,145,146,147,148,149,150],"tree_info":[0,0,0,0,0,0,0,0,0,0,0,0,0,0,0,0,0,0,0,0,0,0,0,0,0,0,0,0,0,0,0,0,0,0,0,0,0,0,0,0,0,0,0,0,0,0,0,0,0,0,0,0,0,0,0,0,0,0,0,0,0,0,0,0,0,0,0,0,0,0,0,0,0,0,0,0,0,0,0,0,0,0,0,0,0,0,0,0,0,0,0,0,0,0,0,0,0,0,0,0,0,0,0,0,0,0,0,0,0,0,0,0,0,0,0,0,0,0,0,0,0,0,0,0,0,0,0,0,0,0,0,0,0,0,0,0,0,0,0,0,0,0,0,0,0,0,0,0,0,0],"trees":[{"base_weights":[1.4675006E-9,-1.107343E0,1.5428174E0,-1.7859765E0,-4.4891122E-1,9.3585014E-1,2.5227597E0,-1.9269817E0,-1.358688E0,-7.7432626E-1,-1.4633976E-1,5.7224685E-1,1.3190799E0,2.2372541E0,3.4453163E0,-1.9804368E0,-1.735296E0,-1.4775832E0,-1.1960907E0,-9.033226E-1,-5.8159006E-1,-2.9284838E-1,5.5707846E-2,3.4633562E-1,7.4657464E-1,1.1353589E0,1.5586644E0,1.9094127E0,2.467739E0,3.1766732E0,1.8742147E-1,-1.31551E0,-1.9927071E0,-1.0714353E0,-1.757692E0,7.8496495E-3,-1.4846767E0,-7.107503E-2,-1.0717304E0,-6.4648986E-1,-9.5563513E-1,-6.6454935E-1,-3.7334096E-1,-5.3966504E-1,-1.7250386E-1,9.2515156E-2,-4.0310073E-1,2.2209644E-1,6.353499E-1,8.71199E-1,4.998223E-1,7.3871017E-1,1.2435638E0,8.7143546E-1,1.6027335E0,2.189085E0,1.8144546E0,1.8750378E0,2.5245004E0,2.417315E0,1.613339E-1,-8.346372E-2,-3.51322E-2,-9.9798225E-2,-3.0178165E-2,-6.582482E-2,-1.1968332E-2,-8.820596E-2,-4.4314377E-2,-7.901796E-2,-7.147931E-2,-9.2494686E-4,-5.5414207E-2,4.1994024E-2,-3.3432815E-2,-5.229957E-2,-4.2076346E-2,-4.0550284E-2,-2.9565219E-2,-3.1009465E-2,-1.4890233E-2,-4.725413E-2,-2.3467958E-2,-1.3611651E-2,5.1925643E-3,1.0267912E-2,-1.6682651E-3,-4.1504573E-2,-1.1541999E-2,1.3090098E-2,-5.21166E-3,9.714744E-4,3.525801E-2,5.4997403E-2,3.7248142E-2,-1.4904164E-3,2.8269697E-2,7.2317794E-3,4.134587E-2,7.147559E-2,5.3834494E-2,4.660007E-2,-3.878008E-2,8.403286E-2,6.597858E-2,1.1031611E-1,-8.619005E-3,7.6796524E-2,9.339323E-2,1.0505714E-1,5.5713814E-2,1.1754551E-1,1.3517113E-1,4.6975188E-2,1.2679552E-1],"categories":[],"categories_nodes":[],"categories_segments":[],"categories_sizes":[],"default_left":[0,0,0,0,0,0,0,0,0,0,0,0,0,0,0,0,0,0,0,0,0,0,0,0,0,0,0,0,0,0,0,0,0,0,0,0,0,0,0,0,0,0,0,0,0,0,0,0,0,0,0,0,0,0,0,0,0,0,0,0,0,0,0,0,0,0,0,0,0,0,0,0,0,0,0,0,0,0,0,0,0,0,0,0,0,0,0,0,0,0,0,0,0,0,0,0,0,0,0,0,0,0,0,0,0,0,0,0,0,0,0,0,0,0,0],"id":0,"left_children":[1,3,5,7,9,11,13,15,17,19,21,23,25,27,29,31,33,35,37,39,41,43,45,47,49,51,53,55,57,59,-1,61,63,65,67,-1,69,-1,71,73,75,77,79,81,83,85,87,89,91,93,95,97,99,101,103,105,107,109,111,113,-1,-1,-1,-1,-1,-1,-1,-1,-1,-1,-1,-1,-1,-1,-1,-1,-1,-1,-1,-1,-1,-1,-1,-1,-1,-1,-1,-1,-1,-1,-1,-1,-1,-1,-1,-1,-1,-1,-1,-1,-1,-1,-1,-1,-1,-1,-1,-1,-1,-1,-1,-1,-1,-1,-1],"loss_changes":[2.0263664E4,3.084586E3,2.9454316E3,2.0223047E2,3.450921E2,4.2591504E2,4.9142578E2,2.2733398E1,1.4606812E1,4.146692E1,5.3832237E1,6.1690247E1,6.381543E1,1.04853516E2,2.4410156E1,1.3614746E1,6.516968E0,5.8565674E0,8.652161E0,1.2952148E1,1.1499695E1,3.1213898E1,1.2956238E1,2.4526932E1,2.6841034E1,3.543396E1,1.8107178E1,1.2042236E1,2.379541E1,1.4274902E0,0E0,7.2826843E0,7.6279297E0,3.966936E0,1.4888916E0,0E0,2.8674316E-1,0E0,9.142395E0,6.2944565E0,7.7495117E0,4.7231293E0,3.469925E0,9.390038E0,1.9596344E1,1.0078012E1,4.000944E0,6.272606E0,8.843803E0,1.6159882E1,1.0435478E1,9.522301E0,1.9064697E1,4.8127937E0,1.1109375E1,6.404663E0,3.9144287E0,1.1075684E1,1.7591309E1,9.47464E-1,0E0,0E0,0E0,0E0,0E0,0E0,0E0,0E0,0E0,0E0,0E0,0E0,0E0,0E0,0E0,0E0,0E0,0E0,0E0,0E0,0E0,0E0,0E0,0E0,0E0,0E0,0E0,0E0,0E0,0E0,0E0,0E0,0E0,0E0,0E0,0E0,0E0,0E0,0E0,0E0,0E0,0E0,0E0,0E0,0E0,0E0,0E0,0E0,0E0,0E0,0E0,0E0,0E0,0E0,0E0],"parents":[2147483647,0,0,1,1,2,2,3,3,4,4,5,5,6,6,7,7,8,8,9,9,10,10,11,11,12,12,13,13,14,14,15,15,16,16,17,17,18,18,19,19,20,20,21,21,22,22,23,23,24,24,25,25,26,26,27,27,28,28,29,29,31,31,32,32,33,33,34,34,36,36,38,38,39,39,40,40,41,41,42,42,43,43,44,44,45,45,46,46,47,47,48,48,49,49,50,50,51,51,52,52,53,53,54,54,55,55,56,56,57,57,58,58,59,59],"right_children":[2,4,6,8,10,12,14,16,18,20,22,24,26,28,30,32,34,36,38,40,42,44,46,48,50,52,54,56,58,60,-1,62,64,66,68,-1,70,-1,72,74,76,78,80,82,84,86,88,90,92,94,96,98,100,102,104,106,108,110,112,114,-1,-1,-1,-1,-1,-1,-1,-1,-1,-1,-1,-1,-1,-1,-1,-1,-1,-1,-1,-1,-1,-1,-1,-1,-1,-1,-1,-1,-1,-1,-1,-1,-1,-1,-1,-1,-1,-1,-1,-1,-1,-1,-1,-1,-1,-1,-1,-1,-1,-1,-1,-1,-1,-1,-1],"split_conditions":[-2.8426984E-1,-3.8085303E-1,2.1690334E-1,-3.9319217E-1,-3.483388E-1,-1.3688312E-1,1.967646E0,-3.9738706E-1,-3.8697752E-1,-3.6326936E-1,-3.184919E-1,-2.3525836E-1,1.9066514E-2,5.337767E-1,3.408655E0,-9.208663E-2,-4.7891414E-1,-2.8744252E0,-6.605244E-1,-1.0178031E0,8.1805104E-1,-6.3457096E-1,-5.3677954E-2,7.581872E-1,-1.3414596E-1,-7.539569E-1,-1.0452306E0,-4.3554235E-1,-4.656592E-1,-2.2293419E-1,1.8742147E-1,7.5858676E-1,-2.3581882E-1,3.332096E-1,1.0901468E0,7.8496495E-3,-4.252882E-1,-7.107503E-2,-3.9793694E-1,-4.7891414E-1,-3.7154055E-1,-6.397616E-1,-8.389819E-1,-1.4276956E0,7.282553E-1,4.224508E-1,-1.10692166E-1,-1.2254744E-1,-8.499847E-1,-3.725178E-1,-9.146966E-1,-1.0445672E0,1.8324403E-1,1.6926603E0,3.1400213E-1,1.9539809E0,-8.473894E-1,1.8212959E0,9.9476933E-1,-6.5170485E-1,1.613339E-1,-8.346372E-2,-3.51322E-2,-9.9798225E-2,-3.0178165E-2,-6.582482E-2,-1.1968332E-2,-8.820596E-2,-4.4314377E-2,-7.901796E-2,-7.147931E-2,-9.2494686E-4,-5.5414207E-2,4.1994024E-2,-3.3432815E-2,-5.229957E-2,-4.2076346E-2,-4.0550284E-2,-2.9565219E-2,-3.1009465E-2,-1.4890233E-2,-4.725413E-2,-2.3467958E-2,-1.3611651E-2,5.1925643E-3,1.0267912E-2,-1.6682651E-3,-4.1504573E-2,-1.1541999E-2,1.3090098E-2,-5.21166E-3,9.714744E-4,3.525801E-2,5.4997403E-2,3.7248142E-2,-1.4904164E-3,2.8269697E-2,7.2317794E-3,4.134587E-2,7.147559E-2,5.3834494E-2,4.660007E-2,-3.878008E-2,8.403286E-2,6.597858E-2,1.1031611E-1,-8.619005E-3,7.6796524E-2,9.339323E-2,1.0505714E-1,5.5713814E-2,1.1754551E-1,1.3517113E-1,4.6975188E-2,1.2679552E-1],"split_indices":[18,18,18,18,18,18,18,18,18,18,18,18,18,18,18,5,22,11,3,17,7,3,20,7,19,3,2,17,2,9,0,11,19,2,21,0,6,0,19,22,18,3,12,2,7,17,1,19,3,17,2,9,17,19,19,8,3,19,18,13,0,0,0,0,0,0,0,0,0,0,0,0,0,0,0,0,0,0,0,0,0,0,0,0,0,0,0,0,0,0,0,0,0,0,0,0,0,0,0,0,0,0,0,0,0,0,0,0,0,0,0,0,0,0,0],"split_type":[0,0,0,0,0,0,0,0,0,0,0,0,0,0,0,0,0,0,0,0,0,0,0,0,0,0,0,0,0,0,0,0,0,0,0,0,0,0,0,0,0,0,0,0,0,0,0,0,0,0,0,0,0,0,0,0,0,0,0,0,0,0,0,0,0,0,0,0,0,0,0,0,0,0,0,0,0,0,0,0,0,0,0,0,0,0,0,0,0,0,0,0,0,0,0,0,0,0,0,0,0,0,0,0,0,0,0,0,0,0,0,0,0,0,0],"sum_hessian":[1.1859E4,6.904E3,4.955E3,3.399E3,3.505E3,3.061E3,1.894E3,2.553E3,8.46E2,1.688E3,1.817E3,1.572E3,1.489E3,1.449E3,4.45E2,1.989E3,5.64E2,4.84E2,3.62E2,1.009E3,6.79E2,1.053E3,7.64E2,6.86E2,8.86E2,8.46E2,6.43E2,6.02E2,8.47E2,2.42E2,2.03E2,3.8E1,1.951E3,2E1,5.44E2,2E0,4.82E2,1.25E2,2.37E2,1.73E2,8.36E2,4.84E2,1.95E2,3.44E2,7.09E2,7.08E2,5.6E1,4.81E2,2.05E2,5.87E2,2.99E2,1.83E2,6.63E2,4E1,6.03E2,1.47E2,4.55E2,7.7E1,7.7E2,1.8E1,2.24E2,2.3E1,1.5E1,1.946E3,5E0,1.5E1,5E0,5.39E2,5E0,1.66E2,3.16E2,8E0,2.29E2,2E0,1.71E2,4.62E2,3.74E2,1.58E2,3.26E2,4.4E1,1.51E2,4.9E1,2.95E2,5.21E2,1.88E2,3.73E2,3.35E2,1.5E1,4.1E1,4.29E2,5.2E1,2.1E1,1.84E2,2.06E2,3.81E2,3.3E1,2.66E2,2.4E1,1.59E2,3.1E2,3.53E2,3.9E1,1E0,4.69E2,1.34E2,1.46E2,1E0,7.8E1,3.77E2,5.8E1,1.9E1,3.98E2,3.72E2,2E0,1.6E1],"tree_param":{"num_deleted":"0","num_feature":"24","num_nodes":"115","size_leaf_vector":"1"}},{"base_weights":[5.4658987E-5,-1.0521284E0,1.4660201E0,-1.6968921E0,-4.265585E-1,8.892193E-1,2.397259E0,-1.8308123E0,-1.2910725E0,-7.3572946E-1,-1.3909079E-1,5.437382E-1,1.2533486E0,2.125864E0,3.2742221E0,-1.8815398E0,-1.6489034E0,-1.4039981E0,-1.1366372E0,-9.083451E-1,-6.046523E-1,-2.7828106E-1,5.286431E-2,3.29083E-1,7.093801E-1,1.0787964E0,1.4809763E0,1.8143929E0,2.3448396E0,3.0974424E0,1.85415E-1,-1.9490523E0,-1.762597E0,-1.0215681E0,-1.6700504E0,7.587993E-3,-1.4107544E0,-6.754949E-2,-1.0183806E0,-1.042704E0,-8.242934E-1,-6.8225425E-1,-4.2399085E-1,-5.1288676E-1,-1.6389059E-1,-6.993861E-2,1.7811988E-1,2.1100792E-1,6.037583E-1,8.277959E-1,4.749204E-1,6.993442E-1,1.1808707E0,1.0514632E0,1.5470657E0,1.9960306E0,1.6836398E0,1.9107475E0,2.4172473E0,2.7998655E0,1.6139637E-1,-2.6033437E-2,-9.7488664E-2,-9.333288E-2,-7.4508026E-2,-6.273929E-2,-1.146965E-2,-8.3803825E-2,-4.2467944E-2,-7.368357E-2,-6.663434E-2,-8.83833E-4,-5.2655544E-2,-6.9879316E-2,-4.968722E-2,1.686585E-2,-4.2299148E-2,-5.6662478E-2,-3.2933768E-2,-3.2773275E-2,-1.806507E-2,-4.493868E-2,-2.229852E-2,-1.2932377E-2,4.9343123E-3,-3.1011954E-2,-5.865236E-4,2.5914509E-2,4.554306E-3,7.0216963E-3,1.9034546E-2,9.251047E-4,3.3504635E-2,4.9977966E-2,3.378806E-2,-1.4180904E-3,2.6861502E-2,2.1499407E-2,4.4638842E-2,6.7781985E-2,5.1150378E-2,5.4905076E-2,-3.257672E-2,8.708331E-2,7.23065E-2,6.408908E-2,1.0335763E-1,3.1310212E-2,8.484406E-2,1.0426313E-1,6.543387E-2,1.1367959E-1,1.3156505E-1,3.360916E-2,1.4068638E-1],"categories":[],"categories_nodes":[],"categories_segments":[],"categories_sizes":[],"default_left":[0,0,0,0,0,0,0,0,0,0,0,0,0,0,0,0,0,0,0,0,0,0,0,0,0,0,0,0,0,0,0,0,0,0,0,0,0,0,0,0,0,0,0,0,0,0,0,0,0,0,0,0,0,0,0,0,0,0,0,0,0,0,0,0,0,0,0,0,0,0,0,0,0,0,0,0,0,0,0,0,0,0,0,0,0,0,0,0,0,0,0,0,0,0,0,0,0,0,0,0,0,0,0,0,0,0,0,0,0,0,0,0,0,0,0],"id":1,"left_children":[1,3,5,7,9,11,13,15,17,19,21,23,25,27,29,31,33,35,37,39,41,43,45,47,49,51,53,55,57,59,-1,61,63,65,67,-1,69,-1,71,73,75,77,79,81,83,85,87,89,91,93,95,97,99,101,103,105,107,109,111,113,-1,-1,-1,-1,-1,-1,-1,-1,-1,-1,-1,-1,-1,-1,-1,-1,-1,-1,-1,-1,-1,-1,-1,-1,-1,-1,-1,-1,-1,-1,-1,-1,-1,-1,-1,-1,-1,-1,-1,-1,-1,-1,-1,-1,-1,-1,-1,-1,-1,-1,-1,-1,-1,-1,-1],"loss_changes":[1.8295168E4,2.784371E3,2.6599316E3,1.8241797E2,3.1149927E2,3.8451733E2,4.4405566E2,2.0464844E1,1.3175537E1,3.7666016E1,4.858855E1,5.5695984E1,5.7604248E1,9.464209E1,2.2737793E1,1.2544434E1,5.7894287E0,5.3120117E0,7.8257446E0,7.350586E0,1.32117E1,2.8201775E1,1.1779496E1,2.2153587E1,2.4233307E1,3.1980408E1,1.6654053E1,1.0960449E1,2.2035645E1,3.5041504E0,0E0,2.8222656E-1,1.7942139E1,3.5918941E0,1.2717285E0,0E0,4.085083E-1,0E0,8.252991E0,3.4066162E0,1.1673492E1,6.3995667E0,4.000393E0,8.507805E0,1.7691023E1,1.2389095E1,1.1173581E1,5.718588E0,7.9850693E0,1.4679565E1,9.423035E0,9.098732E0,1.6987854E1,7.7842712E0,8.402466E0,9.897705E0,3.9360962E0,1.0509949E1,1.6249512E1,1.2349854E0,0E0,0E0,0E0,0E0,0E0,0E0,0E0,0E0,0E0,0E0,0E0,0E0,0E0,0E0,0E0,0E0,0E0,0E0,0E0,0E0,0E0,0E0,0E0,0E0,0E0,0E0,0E0,0E0,0E0,0E0,0E0,0E0,0E0,0E0,0E0,0E0,0E0,0E0,0E0,0E0,0E0,0E0,0E0,0E0,0E0,0E0,0E0,0E0,0E0,0E0,0E0,0E0,0E0,0E0,0E0],"parents":[2147483647,0,0,1,1,2,2,3,3,4,4,5,5,6,6,7,7,8,8,9,9,10,10,11,11,12,12,13,13,14,14,15,15,16,16,17,17,18,18,19,19,20,20,21,21,22,22,23,23,24,24,25,25,26,26,27,27,28,28,29,29,31,31,32,32,33,33,34,34,36,36,38,38,39,39,40,40,41,41,42,42,43,43,44,44,45,45,46,46,47,47,48,48,49,49,50,50,51,51,52,52,53,53,54,54,55,55,56,56,57,57,58,58,59,59],"right_children":[2,4,6,8,10,12,14,16,18,20,22,24,26,28,30,32,34,36,38,40,42,44,46,48,50,52,54,56,58,60,-1,62,64,66,68,-1,70,-1,72,74,76,78,80,82,84,86,88,90,92,94,96,98,100,102,104,106,108,110,112,114,-1,-1,-1,-1,-1,-1,-1,-1,-1,-1,-1,-1,-1,-1,-1,-1,-1,-1,-1,-1,-1,-1,-1,-1,-1,-1,-1,-1,-1,-1,-1,-1,-1,-1,-1,-1,-1,-1,-1,-1,-1,-1,-1,-1,-1,-1,-1,-1,-1,-1,-1,-1,-1,-1,-1],"split_conditions":[-2.8426984E-1,-3.8085303E-1,2.1690334E-1,-3.9319217E-1,-3.483388E-1,-1.3688312E-1,1.967646E0,-3.9738706E-1,-3.8697752E-1,-3.6862773E-1,-3.184919E-1,-2.3525836E-1,1.9066514E-2,5.337767E-1,4.3987665E0,-2.8147244E-1,-4.7891414E-1,-2.8744252E0,-6.605244E-1,-5.619012E-1,7.8283703E-1,-6.3457096E-1,-5.0617907E-2,7.581872E-1,-1.3414596E-1,-7.591476E-1,-4.943767E-1,1.4671846E-1,-5.0782498E-2,-5.541152E-1,1.85415E-1,-9.163592E-2,-1.6331318E-1,3.332096E-1,1.0901468E0,7.587993E-3,-4.498046E-1,-6.754949E-2,-3.9793694E-1,-1.8584583E0,-4.7859794E-1,-3.9723653E-1,-8.389819E-1,-1.4276956E0,7.282553E-1,-1.4276956E0,-3.7568367E-1,9.402812E-2,-8.499847E-1,4.215502E-2,-9.146966E-1,-8.727106E-1,1.8324403E-1,3.7604845E0,-2.1925358E-1,-3.924775E-1,-1.6221914E0,1.9838496E0,1.1189982E0,-4.563351E-1,1.6139637E-1,-2.6033437E-2,-9.7488664E-2,-9.333288E-2,-7.4508026E-2,-6.273929E-2,-1.146965E-2,-8.3803825E-2,-4.2467944E-2,-7.368357E-2,-6.663434E-2,-8.83833E-4,-5.2655544E-2,-6.9879316E-2,-4.968722E-2,1.686585E-2,-4.2299148E-2,-5.6662478E-2,-3.2933768E-2,-3.2773275E-2,-1.806507E-2,-4.493868E-2,-2.229852E-2,-1.2932377E-2,4.9343123E-3,-3.1011954E-2,-5.865236E-4,2.5914509E-2,4.554306E-3,7.0216963E-3,1.9034546E-2,9.251047E-4,3.3504635E-2,4.9977966E-2,3.378806E-2,-1.4180904E-3,2.6861502E-2,2.1499407E-2,4.4638842E-2,6.7781985E-2,5.1150378E-2,5.4905076E-2,-3.257672E-2,8.708331E-2,7.23065E-2,6.408908E-2,1.0335763E-1,3.1310212E-2,8.484406E-2,1.0426313E-1,6.543387E-2,1.1367959E-1,1.3156505E-1,3.360916E-2,1.4068638E-1],"split_indices":[18,18,18,18,18,18,18,18,18,18,18,18,18,18,18,11,22,11,3,3,7,3,3,7,19,3,2,17,9,3,0,5,0,2,21,0,12,0,19,2,22,19,12,2,7,2,16,6,3,17,2,12,17,20,17,9,2,19,18,22,0,0,0,0,0,0,0,0,0,0,0,0,0,0,0,0,0,0,0,0,0,0,0,0,0,0,0,0,0,0,0,0,0,0,0,0,0,0,0,0,0,0,0,0,0,0,0,0,0,0,0,0,0,0,0],"split_type":[0,0,0,0,0,0,0,0,0,0,0,0,0,0,0,0,0,0,0,0,0,0,0,0,0,0,0,0,0,0,0,0,0,0,0,0,0,0,0,0,0,0,0,0,0,0,0,0,0,0,0,0,0,0,0,0,0,0,0,0,0,0,0,0,0,0,0,0,0,0,0,0,0,0,0,0,0,0,0,0,0,0,0,0,0,0,0,0,0,0,0,0,0,0,0,0,0,0,0,0,0,0,0,0,0,0,0,0,0,0,0,0,0,0,0],"sum_hessian":[1.1859E4,6.904E3,4.955E3,3.399E3,3.505E3,3.061E3,1.894E3,2.553E3,8.46E2,1.688E3,1.817E3,1.572E3,1.489E3,1.449E3,4.45E2,1.989E3,5.64E2,4.84E2,3.62E2,7.26E2,9.62E2,1.053E3,7.64E2,6.86E2,8.86E2,8.46E2,6.43E2,6.02E2,8.47E2,3.22E2,1.23E2,1.259E3,7.3E2,2E1,5.44E2,2E0,4.82E2,1.25E2,2.37E2,2.75E2,4.51E2,6.71E2,2.91E2,3.44E2,7.09E2,3.86E2,3.78E2,4.81E2,2.05E2,5.87E2,2.99E2,1.81E2,6.65E2,8.8E1,5.55E2,2.46E2,3.56E2,1.25E2,7.22E2,1.05E2,2.17E2,1E0,1.258E3,5.24E2,2.06E2,1.5E1,5E0,5.39E2,5E0,2.57E2,2.25E2,8E0,2.29E2,3E1,2.45E2,8E0,4.43E2,3.1E1,6.4E2,6E1,2.31E2,4.9E1,2.95E2,5.21E2,1.88E2,3.6E1,3.5E2,7.6E1,3.02E2,3.41E2,1.4E2,2.1E1,1.84E2,2.73E2,3.14E2,3.3E1,2.66E2,7.7E1,1.04E2,3.12E2,3.53E2,8.6E1,2E0,1.84E2,3.71E2,2.4E1,2.22E2,5E0,3.51E2,9.5E1,3E1,4.39E2,2.83E2,1E0,1.04E2],"tree_param":{"num_deleted":"0","num_feature":"24","num_nodes":"115","size_leaf_vector":"1"}},{"base_weights":[1.0660972E-4,-9.455552E-1,1.4728352E0,-1.6122668E0,-3.525204E-1,9.4547325E-1,2.3236916E0,-1.7394643E0,-1.2268186E0,-6.154878E-1,9.094924E-3,6.626547E-1,1.309827E0,2.0575016E0,3.1116796E0,-1.7876092E0,-1.5668131E0,-1.3340719E0,-1.0801389E0,-8.172522E-1,-4.4586328E-1,-1.6050579E-1,1.2221112E-1,4.6781808E-1,8.078541E-1,1.1040941E0,1.4390846E0,1.8434E0,2.310669E0,2.8661714E0,1.6944349E-1,-1.1801779E0,-1.7988297E0,-9.740234E-1,-1.5867796E0,7.335063E-3,-1.3405071E0,-6.4198814E-2,-9.676866E-1,-5.751695E-1,-8.666013E-1,-6.510509E-1,-3.699827E-1,-3.9200246E-1,-4.8636973E-2,-4.877193E-3,2.4390678E-1,6.683423E-1,3.535994E-1,5.2712333E-1,9.380251E-1,7.14743E-1,1.1858134E0,1.211165E0,1.5467218E0,2.1262913E0,1.7389596E0,1.6804826E0,2.366888E0,2.2072835E0,1.4576833E-1,-6.99121E-2,-1.48968715E-2,-9.102618E-2,-7.764224E-2,-7.296834E-2,-2.815458E-2,-7.96214E-2,-4.069845E-2,-7.1601674E-2,-6.4403065E-2,-8.445521E-4,-5.003422E-2,4.003203E-2,-2.9791111E-2,-5.3034972E-2,-4.081368E-2,-4.5654725E-2,-2.731814E-2,-2.3276059E-2,-1.0553767E-2,-3.860822E-2,-1.5445528E-2,-6.7488477E-3,1.2140756E-2,-2.3172166E-2,1.865051E-3,2.8165946E-2,7.547077E-3,8.577121E-3,3.853568E-2,-1.9418133E-2,1.9025508E-2,-6.8551973E-3,3.0002726E-2,5.6607664E-2,3.8239673E-2,-6.8833976E-4,4.3335356E-2,4.626758E-2,6.3182585E-2,6.131627E-2,-2.229067E-2,8.765824E-2,7.154548E-2,3.7701014E-2,1.0833608E-1,5.3195328E-2,8.8087715E-2,2.4355032E-2,9.1123275E-2,1.2032306E-1,9.27203E-2,5.1324945E-2,1.17352664E-1],"categories":[],"categories_nodes":[],"categories_segments":[],"categories_sizes":[],"default_left":[0,0,0,0,0,0,0,0,0,0,0,0,0,0,0,0,0,0,0,0,0,0,0,0,0,0,0,0,0,0,0,0,0,0,0,0,0,0,0,0,0,0,0,0,0,0,0,0,0,0,0,0,0,0,0,0,0,0,0,0,0,0,0,0,0,0,0,0,0,0,0,0,0,0,0,0,0,0,0,0,0,0,0,0,0,0,0,0,0,0,0,0,0,0,0,0,0,0,0,0,0,0,0,0,0,0,0,0,0,0,0,0,0,0,0],"id":2,"left_children":[1,3,5,7,9,11,13,15,17,19,21,23,25,27,29,31,33,35,37,39,41,43,45,47,49,51,53,55,57,59,-1,61,63,65,67,-1,69,-1,71,73,75,77,79,81,83,85,87,89,91,93,95,97,99,101,103,105,107,109,111,113,-1,-1,-1,-1,-1,-1,-1,-1,-1,-1,-1,-1,-1,-1,-1,-1,-1,-1,-1,-1,-1,-1,-1,-1,-1,-1,-1,-1,-1,-1,-1,-1,-1,-1,-1,-1,-1,-1,-1,-1,-1,-1,-1,-1,-1,-1,-1,-1,-1,-1,-1,-1,-1,-1,-1],"loss_changes":[1.6518852E4,2.8552842E3,2.078917E3,1.6456152E2,3.6364136E2,2.9435864E2,3.6570215E2,1.842871E1,1.1884033E1,7.540796E1,3.0925987E1,4.531073E1,3.1678467E1,6.7776855E1,2.0638672E1,1.144043E1,5.1416016E0,4.8182983E0,7.078186E0,1.1567627E1,1.8520676E1,1.6684668E1,1.4956902E1,1.5612961E1,3.327124E1,1.4647522E1,1.6894165E1,1.77229E1,1.7456543E1,1.4416504E0,0E0,7.0864296E0,7.5898438E0,3.3665466E0,1.0827637E0,0E0,4.73938E-1,0E0,7.450119E0,5.4211044E0,7.310364E0,8.389374E0,1.3292061E1,6.395027E0,1.1004264E1,9.185158E0,1.458392E1,1.2582291E1,8.993046E0,1.4372925E1,2.0320496E1,9.643467E0,6.9605103E0,6.8268127E0,9.828247E0,8.963135E0,6.358032E0,8.092575E0,6.7526855E0,1.0565491E0,0E0,0E0,0E0,0E0,0E0,0E0,0E0,0E0,0E0,0E0,0E0,0E0,0E0,0E0,0E0,0E0,0E0,0E0,0E0,0E0,0E0,0E0,0E0,0E0,0E0,0E0,0E0,0E0,0E0,0E0,0E0,0E0,0E0,0E0,0E0,0E0,0E0,0E0,0E0,0E0,0E0,0E0,0E0,0E0,0E0,0E0,0E0,0E0,0E0,0E0,0E0,0E0,0E0,0E0,0E0],"parents":[2147483647,0,0,1,1,2,2,3,3,4,4,5,5,6,6,7,7,8,8,9,9,10,10,11,11,12,12,13,13,14,14,15,15,16,16,17,17,18,18,19,19,20,20,21,21,22,22,23,23,24,24,25,25,26,26,27,27,28,28,29,29,31,31,32,32,33,33,34,34,36,36,38,38,39,39,40,40,41,41,42,42,43,43,44,44,45,45,46,46,47,47,48,48,49,49,50,50,51,51,52,52,53,53,54,54,55,55,56,56,57,57,58,58,59,59],"right_children":[2,4,6,8,10,12,14,16,18,20,22,24,26,28,30,32,34,36,38,40,42,44,46,48,50,52,54,56,58,60,-1,62,64,66,68,-1,70,-1,72,74,76,78,80,82,84,86,88,90,92,94,96,98,100,102,104,106,108,110,112,114,-1,-1,-1,-1,-1,-1,-1,-1,-1,-1,-1,-1,-1,-1,-1,-1,-1,-1,-1,-1,-1,-1,-1,-1,-1,-1,-1,-1,-1,-1,-1,-1,-1,-1,-1,-1,-1,-1,-1,-1,-1,-1,-1,-1,-1,-1,-1,-1,-1,-1,-1,-1,-1,-1,-1],"split_conditions":[-2.635326E-1,-3.8085303E-1,2.6390338E-1,-3.9319217E-1,-3.3535445E-1,-8.1232406E-2,1.967646E0,-3.9738706E-1,-3.8697752E-1,-3.6326936E-1,-3.1398746E-1,-2.036609E-1,1.9066514E-2,7.584895E-1,3.408655E0,-9.208663E-2,-4.7891414E-1,-2.8744252E0,-6.605244E-1,-1.0178031E0,-7.124314E-1,-6.50143E-1,-5.0617907E-2,-4.4503722E-2,-5.8006865E-1,-3.2990372E-1,-5.619012E-1,-4.0617862E-1,-4.656592E-1,-4.943767E-1,1.6944349E-1,-3.2840863E-1,-3.9203677E-1,-8.073892E-1,1.0901468E0,7.335063E-3,-4.252882E-1,-6.4198814E-2,-3.9793694E-1,-4.7891414E-1,-7.793081E-1,-1.8995203E-1,4.9187723E-1,-1.4276956E0,9.0960747E-1,-1.4590238E0,-2.4873489E-1,-8.54549E-1,-9.208663E-2,-1.333711E0,1.8324403E-1,-8.7789965E-1,-7.0724064E-1,5.4797044E0,-2.9875043E-1,-1.5791153E0,-9.917117E-1,-9.064393E-1,2.3543491E0,-5.8994454E-1,1.4576833E-1,-6.99121E-2,-1.48968715E-2,-9.102618E-2,-7.764224E-2,-7.296834E-2,-2.815458E-2,-7.96214E-2,-4.069845E-2,-7.1601674E-2,-6.4403065E-2,-8.445521E-4,-5.003422E-2,4.003203E-2,-2.9791111E-2,-5.3034972E-2,-4.081368E-2,-4.5654725E-2,-2.731814E-2,-2.3276059E-2,-1.0553767E-2,-3.860822E-2,-1.5445528E-2,-6.7488477E-3,1.2140756E-2,-2.3172166E-2,1.865051E-3,2.8165946E-2,7.547077E-3,8.577121E-3,3.853568E-2,-1.9418133E-2,1.9025508E-2,-6.8551973E-3,3.0002726E-2,5.6607664E-2,3.8239673E-2,-6.8833976E-4,4.3335356E-2,4.626758E-2,6.3182585E-2,6.131627E-2,-2.229067E-2,8.765824E-2,7.154548E-2,3.7701014E-2,1.0833608E-1,5.3195328E-2,8.8087715E-2,2.4355032E-2,9.1123275E-2,1.2032306E-1,9.27203E-2,5.1324945E-2,1.17352664E-1],"split_indices":[18,18,18,18,18,18,18,18,18,18,18,18,18,18,18,5,22,11,3,17,3,3,3,17,3,2,3,17,2,2,0,20,19,11,21,0,6,0,19,22,12,1,6,2,7,2,16,12,5,2,17,12,3,20,17,2,2,12,14,13,0,0,0,0,0,0,0,0,0,0,0,0,0,0,0,0,0,0,0,0,0,0,0,0,0,0,0,0,0,0,0,0,0,0,0,0,0,0,0,0,0,0,0,0,0,0,0,0,0,0,0,0,0,0,0],"split_type":[0,0,0,0,0,0,0,0,0,0,0,0,0,0,0,0,0,0,0,0,0,0,0,0,0,0,0,0,0,0,0,0,0,0,0,0,0,0,0,0,0,0,0,0,0,0,0,0,0,0,0,0,0,0,0,0,0,0,0,0,0,0,0,0,0,0,0,0,0,0,0,0,0,0,0,0,0,0,0,0,0,0,0,0,0,0,0,0,0,0,0,0,0,0,0,0,0,0,0,0,0,0,0,0,0,0,0,0,0,0,0,0,0,0,0],"sum_hessian":[1.1859E4,7.222E3,4.637E3,3.399E3,3.823E3,2.864E3,1.773E3,2.553E3,8.46E2,2.213E3,1.61E3,1.614E3,1.25E3,1.328E3,4.45E2,1.989E3,5.64E2,4.84E2,3.62E2,1.009E3,1.204E3,6.44E2,9.66E2,6.91E2,9.23E2,4.86E2,7.64E2,7.24E2,6.04E2,2.42E2,2.03E2,3.8E1,1.951E3,2E1,5.44E2,2E0,4.82E2,1.25E2,2.37E2,1.73E2,8.36E2,3.23E2,8.81E2,2.09E2,4.35E2,4.73E2,4.93E2,2.49E2,4.42E2,2.94E2,6.29E2,8.6E1,4E2,2.49E2,5.15E2,1.9E2,5.34E2,5.2E1,5.52E2,2E1,2.22E2,3E1,8E0,1.787E3,1.64E2,8E0,1.2E1,5.39E2,5E0,1.66E2,3.16E2,8E0,2.29E2,2E0,1.71E2,1.68E2,6.68E2,9E1,2.33E2,5.49E2,3.32E2,3.6E1,1.73E2,3.36E2,9.9E1,3.9E1,4.34E2,1.1E2,3.83E2,4.3E1,2.06E2,1.5E1,4.27E2,2.9E1,2.65E2,2.94E2,3.35E2,1.5E1,7.1E1,9.5E1,3.05E2,2.47E2,2E0,1.8E2,3.35E2,6E0,1.84E2,1.9E1,5.15E2,6E0,4.6E1,5.09E2,4.3E1,3E0,1.7E1],"tree_param":{"num_deleted":"0","num_feature":"24","num_nodes":"115","size_leaf_vector":"1"}},{"base_weights":[1.5788773E-4,-9.50072E-1,1.3240758E0,-1.5451827E0,-3.9820036E-1,8.030567E-1,2.165256E0,-1.6797186E0,-1.252473E0,-6.79004E-1,-1.25055E-1,4.9068475E-1,1.1322902E0,1.9201777E0,2.9571805E0,-1.7372843E0,-1.573195E0,-1.3953344E0,-1.1283153E0,-8.7238306E-1,-5.676027E-1,-2.7441865E-1,1.91208E-2,2.976674E-1,6.396275E-1,9.665845E-1,1.3240482E0,1.6366189E0,2.1195476E0,2.7948015E0,1.6781515E-1,-1.7666861E0,-1.599262E0,-1.6648027E0,-1.357145E0,-1.3988006E0,6.9705457E-3,-1.1384894E0,-3.7102416E-1,-1.0072128E0,-7.8024244E-1,-6.372327E-1,-3.9813763E-1,-5.2648056E-1,-1.7668559E-1,-1.7510104E-1,9.199766E-2,1.3634832E-1,4.6875036E-1,7.5068706E-1,4.1981867E-1,6.043413E-1,1.0614704E0,6.408688E-1,1.3652307E0,1.8034911E0,1.5165794E0,1.7232412E0,2.185682E0,2.51801E0,1.4582841E-1,-8.8528E-2,-5.9367716E-2,-8.037317E-2,-3.2805342E-2,-8.3441354E-2,1.492368E-2,-3.4557667E-2,-7.14678E-2,-4.4487324E-2,-7.071681E-2,7.090565E-3,-5.716706E-2,-3.202453E-2,1.9070275E-2,-5.086399E-2,9.3790535E-3,-2.7029097E-2,-4.1711904E-2,-3.645405E-2,-2.870736E-2,1.2692128E-2,-2.0756213E-2,-3.2991864E-2,-1.7017495E-2,3.2234613E-2,-9.997346E-3,-2.984557E-2,-4.5354455E-3,1.1191055E-2,-2.3048266E-3,8.200139E-3,-1.952579E-2,1.2019335E-2,3.0970512E-2,4.8333235E-2,3.2338046E-2,-2.272274E-3,2.3874672E-2,1.7101502E-2,3.9544653E-2,6.4188264E-2,4.739097E-2,4.4035323E-2,2.8274301E-3,5.912211E-2,7.275753E-2,6.0682017E-2,9.397223E-2,2.7636228E-2,7.6435015E-2,9.4321586E-2,5.811442E-2,1.02691606E-1,1.1911302E-1,3.1485807E-2,1.2649982E-1],"categories":[],"categories_nodes":[],"categories_segments":[],"categories_sizes":[],"default_left":[0,0,0,0,0,0,0,0,0,0,0,0,0,0,0,0,0,0,0,0,0,0,0,0,0,0,0,0,0,0,0,0,0,0,0,0,0,0,0,0,0,0,0,0,0,0,0,0,0,0,0,0,0,0,0,0,0,0,0,0,0,0,0,0,0,0,0,0,0,0,0,0,0,0,0,0,0,0,0,0,0,0,0,0,0,0,0,0,0,0,0,0,0,0,0,0,0,0,0,0,0,0,0,0,0,0,0,0,0,0,0,0,0,0,0,0,0],"id":3,"left_children":[1,3,5,7,9,11,13,15,17,19,21,23,25,27,29,31,33,35,37,39,41,43,45,47,49,51,53,55,57,59,-1,61,63,65,67,69,-1,71,73,75,77,79,81,83,85,87,89,91,93,95,97,99,101,103,105,107,109,111,113,115,-1,-1,-1,-1,-1,-1,-1,-1,-1,-1,-1,-1,-1,-1,-1,-1,-1,-1,-1,-1,-1,-1,-1,-1,-1,-1,-1,-1,-1,-1,-1,-1,-1,-1,-1,-1,-1,-1,-1,-1,-1,-1,-1,-1,-1,-1,-1,-1,-1,-1,-1,-1,-1,-1,-1,-1,-1],"loss_changes":[1.4921451E4,2.2671567E3,2.170332E3,1.287168E2,2.7480872E2,3.143506E2,3.6211035E2,1.1205078E1,1.7049805E1,3.757074E1,3.9155193E1,4.5031067E1,4.606555E1,7.850391E1,1.9524658E1,3.1235352E0,1.3732544E1,2.7697144E0,3.946167E0,7.2147827E0,1.3009338E1,2.190583E1,1.3122971E1,1.8896557E1,2.1338196E1,2.6959045E1,1.8481934E1,9.343628E0,1.8459229E1,3.5424805E0,0E0,5.883789E-1,1.0183716E0,4.946411E0,1.0842712E1,2.5613403E0,0E0,3.6344604E0,2.0690775E0,3.2940674E0,4.5570374E0,4.187866E0,3.7601013E0,5.9560547E0,1.2452494E1,8.952016E0,1.2279847E1,5.2364454E0,1.1308044E1,1.2572876E1,8.071903E0,7.999443E0,1.4825867E1,5.696018E0,8.930176E0,8.784912E0,3.3257446E0,9.341736E0,1.3846436E1,8.0596924E-1,0E0,0E0,0E0,0E0,0E0,0E0,0E0,0E0,0E0,0E0,0E0,0E0,0E0,0E0,0E0,0E0,0E0,0E0,0E0,0E0,0E0,0E0,0E0,0E0,0E0,0E0,0E0,0E0,0E0,0E0,0E0,0E0,0E0,0E0,0E0,0E0,0E0,0E0,0E0,0E0,0E0,0E0,0E0,0E0,0E0,0E0,0E0,0E0,0E0,0E0,0E0,0E0,0E0,0E0,0E0,0E0,0E0],"parents":[2147483647,0,0,1,1,2,2,3,3,4,4,5,5,6,6,7,7,8,8,9,9,10,10,11,11,12,12,13,13,14,14,15,15,16,16,17,17,18,18,19,19,20,20,21,21,22,22,23,23,24,24,25,25,26,26,27,27,28,28,29,29,31,31,32,32,33,33,34,34,35,35,37,37,38,38,39,39,40,40,41,41,42,42,43,43,44,44,45,45,46,46,47,47,48,48,49,49,50,50,51,51,52,52,53,53,54,54,55,55,56,56,57,57,58,58,59,59],"right_children":[2,4,6,8,10,12,14,16,18,20,22,24,26,28,30,32,34,36,38,40,42,44,46,48,50,52,54,56,58,60,-1,62,64,66,68,70,-1,72,74,76,78,80,82,84,86,88,90,92,94,96,98,100,102,104,106,108,110,112,114,116,-1,-1,-1,-1,-1,-1,-1,-1,-1,-1,-1,-1,-1,-1,-1,-1,-1,-1,-1,-1,-1,-1,-1,-1,-1,-1,-1,-1,-1,-1,-1,-1,-1,-1,-1,-1,-1,-1,-1,-1,-1,-1,-1,-1,-1,-1,-1,-1,-1,-1,-1,-1,-1,-1,-1,-1,-1],"split_conditions":[-2.8426984E-1,-3.822288E-1,2.1690334E-1,-3.9562583E-1,-3.483388E-1,-1.3688312E-1,1.967646E0,-2.8147244E-1,-3.904964E-1,-3.7154055E-1,-3.235336E-1,-2.3525836E-1,9.291493E-3,5.337767E-1,4.3987665E0,-3.9783654E-1,-2.575872E-1,-8.796376E-2,1.5692933E0,-5.619012E-1,7.722728E-1,-7.0724064E-1,-6.50143E-1,9.402812E-2,-1.3414596E-1,-7.591476E-1,-9.4675374E-1,1.4671846E-1,-5.0782498E-2,-5.541152E-1,1.6781515E-1,2.3922504E-1,1.5692933E0,-2.3581882E-1,-4.751802E-1,-4.7891414E-1,6.9705457E-3,-2.8744252E0,1.2240328E0,1.9120816E0,-9.2899585E-1,-3.6326936E-1,-4.7844595E-1,-7.86249E-2,-3.9461884E-1,-1.310215E0,5.055286E-1,2.1753553E-1,-5.0220823E-1,-4.7636506E-1,-9.146966E-1,-8.727106E-1,-4.7562063E-1,4.7481306E-2,-5.619012E-1,-2.5549927E-1,-1.6221914E0,1.9838496E0,1.1189982E0,-4.563351E-1,1.4582841E-1,-8.8528E-2,-5.9367716E-2,-8.037317E-2,-3.2805342E-2,-8.3441354E-2,1.492368E-2,-3.4557667E-2,-7.14678E-2,-4.4487324E-2,-7.071681E-2,7.090565E-3,-5.716706E-2,-3.202453E-2,1.9070275E-2,-5.086399E-2,9.3790535E-3,-2.7029097E-2,-4.1711904E-2,-3.645405E-2,-2.870736E-2,1.2692128E-2,-2.0756213E-2,-3.2991864E-2,-1.7017495E-2,3.2234613E-2,-9.997346E-3,-2.984557E-2,-4.5354455E-3,1.1191055E-2,-2.3048266E-3,8.200139E-3,-1.952579E-2,1.2019335E-2,3.0970512E-2,4.8333235E-2,3.2338046E-2,-2.272274E-3,2.3874672E-2,1.7101502E-2,3.9544653E-2,6.4188264E-2,4.739097E-2,4.4035323E-2,2.8274301E-3,5.912211E-2,7.275753E-2,6.0682017E-2,9.397223E-2,2.7636228E-2,7.6435015E-2,9.4321586E-2,5.811442E-2,1.02691606E-1,1.1911302E-1,3.1485807E-2,1.2649982E-1],"split_indices":[18,18,18,18,18,18,18,11,18,18,18,18,18,18,18,18,0,20,8,3,7,3,3,6,19,3,9,17,9,3,0,2,8,19,22,22,0,11,0,14,17,18,23,5,19,2,17,20,3,17,2,12,14,23,3,2,2,19,18,22,0,0,0,0,0,0,0,0,0,0,0,0,0,0,0,0,0,0,0,0,0,0,0,0,0,0,0,0,0,0,0,0,0,0,0,0,0,0,0,0,0,0,0,0,0,0,0,0,0,0,0,0,0,0,0,0,0],"split_type":[0,0,0,0,0,0,0,0,0,0,0,0,0,0,0,0,0,0,0,0,0,0,0,0,0,0,0,0,0,0,0,0,0,0,0,0,0,0,0,0,0,0,0,0,0,0,0,0,0,0,0,0,0,0,0,0,0,0,0,0,0,0,0,0,0,0,0,0,0,0,0,0,0,0,0,0,0,0,0,0,0,0,0,0,0,0,0,0,0,0,0,0,0,0,0,0,0,0,0,0,0,0,0,0,0,0,0,0,0,0,0,0,0,0,0,0,0],"sum_hessian":[1.1859E4,6.904E3,4.955E3,3.321E3,3.583E3,3.061E3,1.894E3,2.272E3,1.049E3,1.766E3,1.817E3,1.572E3,1.489E3,1.449E3,4.45E2,1.465E3,8.07E2,4.83E2,5.66E2,6.43E2,1.123E3,8.92E2,9.25E2,6.86E2,8.86E2,8.02E2,6.87E2,6.02E2,8.47E2,3.22E2,1.23E2,1.198E3,2.67E2,5.62E2,2.45E2,4.82E2,1E0,5.58E2,8E0,2.57E2,3.86E2,7.94E2,3.29E2,2.48E2,6.44E2,2.52E2,6.73E2,3.54E2,3.32E2,5.87E2,2.99E2,1.68E2,6.34E2,4E1,6.47E2,2.46E2,3.56E2,1.25E2,7.22E2,1.05E2,2.17E2,1.188E3,1E1,2.64E2,3E0,5.61E2,1E0,2.5E1,2.2E2,1.6E1,4.66E2,2E0,5.56E2,6E0,2E0,2.55E2,2E0,7.3E1,3.13E2,3.19E2,4.75E2,8E0,3.21E2,1.43E2,1.05E2,1.7E1,6.27E2,4.1E1,2.11E2,3.44E2,3.29E2,3.37E2,1.7E1,1.33E2,1.99E2,1.88E2,3.99E2,3.3E1,2.66E2,7.1E1,9.7E1,2.11E2,4.23E2,2.8E1,1.2E1,2.18E2,4.29E2,3E1,2.16E2,5E0,3.51E2,9.5E1,3E1,4.39E2,2.83E2,1E0,1.04E2],"tree_param":{"num_deleted":"0","num_feature":"24","num_nodes":"117","size_leaf_vector":"1"}},{"base_weights":[2.1254431E-4,-8.967781E-1,1.2665415E0,-1.4555373E0,-3.6046934E-1,7.704181E-1,2.057576E0,-1.5888062E0,-1.1549295E0,-6.324545E-1,-1.1276278E-1,4.7338146E-1,1.0759087E0,1.8246052E0,2.8103788E0,-1.6719861E0,-1.5190856E0,-1.2495817E0,-9.7287345E-1,-8.1635386E-1,-5.392877E-1,-2.3756124E-1,5.118534E-2,2.9825523E-1,6.152806E-1,9.184648E-1,1.2581056E0,1.5552169E0,2.0140116E0,2.656002E0,1.5949206E-1,-1.6975121E0,-7.6542735E-2,-1.6463754E0,-1.4476E0,-1.505031E-1,-1.2541889E0,-5.8241215E-2,-8.6716473E-1,-6.060699E-1,-8.601786E-1,-6.0661566E-1,-3.8092566E-1,-4.4208255E-1,-1.3784656E-1,8.5438445E-2,-3.668678E-1,2.0062962E-1,5.3427845E-1,6.6280186E-1,1.0234597E-1,5.7675195E-1,1.0093249E0,5.8773685E-1,1.2963922E0,1.7913841E0,1.4751556E0,1.3299041E0,2.0480099E0,2.0328445E0,2.7014587E0,-8.496278E-2,-3.0752739E-2,-3.9270632E-2,-8.270808E-2,-7.340346E-2,-3.771148E-2,-2.533163E-2,6.8542124E-3,-6.6373E-2,-5.839604E-2,-3.2379802E-2,-5.0299853E-2,-1.3636741E-2,-3.3999007E-2,-4.3859966E-2,-1.2399762E-2,-3.459508E-2,-2.700985E-2,-2.9296884E-2,-1.6161544E-2,-2.0088619E-2,-4.8224546E-2,-1.1208851E-2,5.0659655E-3,9.331366E-3,-1.284121E-3,-3.9715644E-2,-9.861798E-3,5.0860878E-2,9.333002E-3,-1.5171342E-2,2.8756311E-2,4.4716984E-2,2.8557831E-2,-2.928319E-2,1.3776451E-2,1.6258303E-2,3.7606318E-2,6.1208E-2,4.5027014E-2,-1.5074096E-3,4.0092014E-2,6.849479E-2,5.3954203E-2,9.034812E-2,-1.24653345E-2,4.156212E-2,7.4683525E-2,8.108234E-2,3.3860415E-2,9.542672E-2,1.0981587E-1,4.5477502E-2,1.0699078E-1,1.4372693E-1,1.2545434E-1],"categories":[],"categories_nodes":[],"categories_segments":[],"categories_sizes":[],"default_left":[0,0,0,0,0,0,0,0,0,0,0,0,0,0,0,0,0,0,0,0,0,0,0,0,0,0,0,0,0,0,0,0,0,0,0,0,0,0,0,0,0,0,0,0,0,0,0,0,0,0,0,0,0,0,0,0,0,0,0,0,0,0,0,0,0,0,0,0,0,0,0,0,0,0,0,0,0,0,0,0,0,0,0,0,0,0,0,0,0,0,0,0,0,0,0,0,0,0,0,0,0,0,0,0,0,0,0,0,0,0,0,0,0,0,0,0,0],"id":4,"left_children":[1,3,5,7,9,11,13,15,17,19,21,23,25,27,29,31,33,35,37,39,41,43,45,47,49,51,53,55,57,59,-1,61,-1,63,65,67,69,-1,71,73,75,77,79,81,83,85,87,89,91,93,95,97,99,101,103,105,107,109,111,113,115,-1,-1,-1,-1,-1,-1,-1,-1,-1,-1,-1,-1,-1,-1,-1,-1,-1,-1,-1,-1,-1,-1,-1,-1,-1,-1,-1,-1,-1,-1,-1,-1,-1,-1,-1,-1,-1,-1,-1,-1,-1,-1,-1,-1,-1,-1,-1,-1,-1,-1,-1,-1,-1,-1,-1,-1],"loss_changes":[1.3472733E4,2.080067E3,1.9284868E3,1.34375E2,2.3869687E2,2.7389417E2,3.2721973E2,1.1105957E1,1.6843384E1,2.8497864E1,3.7986794E1,3.796161E1,4.1586304E1,7.085254E1,1.7654541E1,1.2307129E0,9.364014E0,3.2850342E0,6.3554993E0,4.6947327E0,1.1753235E1,2.1434105E1,1.1529997E1,1.5768681E1,2.0578033E1,2.4349426E1,1.6896362E1,8.758911E0,1.6999512E1,3.6577148E0,0E0,6.3623047E-1,0E0,1.7644043E0,1.0743774E1,4.7912467E-1,2.7667236E0,0E0,6.603531E0,2.3028717E0,4.638092E0,4.084259E0,3.8085098E0,6.87764E0,1.4682296E1,8.359228E0,4.2663393E0,5.388338E0,7.05241E0,1.5934174E1,8.859437E0,7.300255E0,1.3691284E1,5.1835346E0,8.904175E0,5.1554565E0,4.194763E0,7.0898285E0,1.2480225E1,1.177887E0,2.7097168E0,0E0,0E0,0E0,0E0,0E0,0E0,0E0,0E0,0E0,0E0,0E0,0E0,0E0,0E0,0E0,0E0,0E0,0E0,0E0,0E0,0E0,0E0,0E0,0E0,0E0,0E0,0E0,0E0,0E0,0E0,0E0,0E0,0E0,0E0,0E0,0E0,0E0,0E0,0E0,0E0,0E0,0E0,0E0,0E0,0E0,0E0,0E0,0E0,0E0,0E0,0E0,0E0,0E0,0E0,0E0,0E0],"parents":[2147483647,0,0,1,1,2,2,3,3,4,4,5,5,6,6,7,7,8,8,9,9,10,10,11,11,12,12,13,13,14,14,15,15,16,16,17,17,18,18,19,19,20,20,21,21,22,22,23,23,24,24,25,25,26,26,27,27,28,28,29,29,31,31,33,33,34,34,35,35,36,36,38,38,39,39,40,40,41,41,42,42,43,43,44,44,45,45,46,46,47,47,48,48,49,49,50,50,51,51,52,52,53,53,54,54,55,55,56,56,57,57,58,58,59,59,60,60],"right_children":[2,4,6,8,10,12,14,16,18,20,22,24,26,28,30,32,34,36,38,40,42,44,46,48,50,52,54,56,58,60,-1,62,-1,64,66,68,70,-1,72,74,76,78,80,82,84,86,88,90,92,94,96,98,100,102,104,106,108,110,112,114,116,-1,-1,-1,-1,-1,-1,-1,-1,-1,-1,-1,-1,-1,-1,-1,-1,-1,-1,-1,-1,-1,-1,-1,-1,-1,-1,-1,-1,-1,-1,-1,-1,-1,-1,-1,-1,-1,-1,-1,-1,-1,-1,-1,-1,-1,-1,-1,-1,-1,-1,-1,-1,-1,-1,-1,-1],"split_conditions":[-2.823509E-1,-3.8085303E-1,2.1690334E-1,-3.9491662E-1,-3.483388E-1,-1.3688312E-1,1.967646E0,-6.3380724E-1,-3.8697752E-1,-3.7154055E-1,-3.184919E-1,-2.3139791E-1,9.291493E-3,5.337767E-1,4.3987665E0,-3.9783654E-1,-9.6437925E-1,-2.8744252E0,-6.605244E-1,-1.0349916E0,7.4234086E-1,-6.3457096E-1,-5.3677954E-2,8.022047E-1,7.5270854E-2,-7.539569E-1,-1.1561847E0,-4.3554235E-1,-8.076586E-1,-4.943767E-1,1.5949206E-1,9.8473597E-1,-7.6542735E-2,-1.122549E0,-2.6072553E-1,-5.385431E-1,-3.9096487E-1,-5.8241215E-2,-1.7484993E-1,-3.8847056E-1,1.4048625E0,-2.2517863E-1,-8.389819E-1,1.0917842E-1,7.282553E-1,4.224508E-1,-1.10692166E-1,-1.314305E0,-8.076586E-1,-4.3554235E-1,-7.2150606E-1,-8.727106E-1,-4.7562063E-1,-5.5235136E-1,2.61715E-1,1.9539809E0,-1.5980631E0,1.1738569E0,9.9476933E-1,-7.352013E-1,2.3624195E-1,-8.496278E-2,-3.0752739E-2,-3.9270632E-2,-8.270808E-2,-7.340346E-2,-3.771148E-2,-2.533163E-2,6.8542124E-3,-6.6373E-2,-5.839604E-2,-3.2379802E-2,-5.0299853E-2,-1.3636741E-2,-3.3999007E-2,-4.3859966E-2,-1.2399762E-2,-3.459508E-2,-2.700985E-2,-2.9296884E-2,-1.6161544E-2,-2.0088619E-2,-4.8224546E-2,-1.1208851E-2,5.0659655E-3,9.331366E-3,-1.284121E-3,-3.9715644E-2,-9.861798E-3,5.0860878E-2,9.333002E-3,-1.5171342E-2,2.8756311E-2,4.4716984E-2,2.8557831E-2,-2.928319E-2,1.3776451E-2,1.6258303E-2,3.7606318E-2,6.1208E-2,4.5027014E-2,-1.5074096E-3,4.0092014E-2,6.849479E-2,5.3954203E-2,9.034812E-2,-1.24653345E-2,4.156212E-2,7.4683525E-2,8.108234E-2,3.3860415E-2,9.542672E-2,1.0981587E-1,4.5477502E-2,1.0699078E-1,1.4372693E-1,1.2545434E-1],"split_indices":[18,18,18,18,18,18,18,1,18,18,18,18,18,18,18,18,11,11,3,17,7,3,20,7,19,3,2,17,2,2,0,9,0,0,20,3,18,0,17,19,11,1,12,20,7,17,1,17,2,17,2,12,14,13,19,8,4,20,18,12,17,0,0,0,0,0,0,0,0,0,0,0,0,0,0,0,0,0,0,0,0,0,0,0,0,0,0,0,0,0,0,0,0,0,0,0,0,0,0,0,0,0,0,0,0,0,0,0,0,0,0,0,0,0,0,0,0],"split_type":[0,0,0,0,0,0,0,0,0,0,0,0,0,0,0,0,0,0,0,0,0,0,0,0,0,0,0,0,0,0,0,0,0,0,0,0,0,0,0,0,0,0,0,0,0,0,0,0,0,0,0,0,0,0,0,0,0,0,0,0,0,0,0,0,0,0,0,0,0,0,0,0,0,0,0,0,0,0,0,0,0,0,0,0,0,0,0,0,0,0,0,0,0,0,0,0,0,0,0,0,0,0,0,0,0,0,0,0,0,0,0,0,0,0,0,0,0],"sum_hessian":[1.1859E4,6.942E3,4.917E3,3.399E3,3.543E3,3.023E3,1.894E3,2.352E3,1.047E3,1.688E3,1.855E3,1.534E3,1.489E3,1.449E3,4.45E2,1.062E3,1.29E3,6.85E2,3.62E2,5.65E2,1.123E3,1.053E3,8.02E2,6.88E2,8.46E2,8.02E2,6.87E2,6.02E2,8.47E2,3.22E2,1.23E2,8.9E2,1.72E2,4.56E2,8.34E2,3E0,6.82E2,1.25E2,2.37E2,1E2,4.65E2,7.86E2,3.37E2,3.44E2,7.09E2,7.42E2,6E1,4.88E2,2E2,7.74E2,7.2E1,1.7E2,6.32E2,3.8E1,6.49E2,1.47E2,4.55E2,4.2E1,8.05E2,2.5E1,2.97E2,8.88E2,2E0,5E0,4.51E2,8.09E2,2.5E1,1E0,2E0,3.61E2,3.21E2,9.4E1,1.43E2,1.9E1,8.1E1,4.52E2,1.3E1,3.4E2,4.46E2,7.2E1,2.65E2,3.21E2,2.3E1,5.21E2,1.88E2,3.88E2,3.54E2,1.6E1,4.4E1,7E0,4.81E2,9E0,1.91E2,2.17E2,5.57E2,1.4E1,5.8E1,7.1E1,9.9E1,2.09E2,4.23E2,1E1,2.8E1,4.81E2,1.68E2,1.46E2,1E0,1.4E1,4.41E2,2.8E1,1.4E1,4.22E2,3.83E2,3E0,2.2E1,1.49E2,1.48E2],"tree_param":{"num_deleted":"0","num_feature":"24","num_nodes":"117","size_leaf_vector":"1"}},{"base_weights":[2.4506083E-4,-8.113819E-1,1.2642341E0,-1.3642576E0,-2.8516918E-1,8.1147474E-1,1.9947252E0,-1.4886265E0,-1.0155197E0,-5.1119274E-1,8.515767E-3,5.8824897E-1,1.1536946E0,1.7662181E0,2.6711628E0,-1.5301687E0,-1.3212003E0,-1.1347452E0,-9.040335E-1,-6.8449277E-1,-3.8305864E-1,-1.0558064E-1,1.3737167E-1,3.992358E-1,7.1285075E-1,7.911353E-1,1.211383E0,1.5809189E0,1.9853516E0,2.4554505E0,2.9150202E0,-1.5745978E0,-1.4040476E0,-7.388771E-1,-1.3393043E0,6.6257357E-3,-1.1407657E0,-1.0839598E0,-8.0958647E-1,-4.6215522E-1,-7.308777E-1,-5.671546E-1,-3.1499726E-1,-5.007998E-1,-6.0730655E-2,4.1733056E-1,5.742172E-2,6.746456E-1,3.3432847E-1,4.6610236E-1,8.2912916E-1,1.1259912E0,4.9769798E-1,1.3760217E0,1.1215814E0,1.8364218E0,1.4867469E0,1.5624838E0,2.0533574E0,2.5472684E0,2.1259296E0,1.2051161E-1,1.4991704E-1,-7.893025E-2,-3.0897362E-2,-7.4483275E-2,-5.2834213E-2,-5.9750713E-2,-2.0561201E-2,-7.057368E-2,-6.289571E-2,-6.744265E-2,-5.5751204E-2,-5.448514E-2,-3.6964417E-3,1.1222347E-3,-4.1816305E-2,-8.049031E-4,-2.6958594E-2,-4.550723E-2,-3.4198444E-2,-4.0533043E-2,-2.3501698E-2,-2.0056494E-2,-8.589513E-3,-1.6848832E-2,-6.0335185E-2,2.2174159E-2,-4.486825E-3,-1.1320892E-2,2.297536E-2,-1.5459516E-3,1.0871182E-2,9.239655E-2,3.1157056E-2,-4.834227E-5,1.9298365E-2,-5.578554E-3,2.6778176E-2,5.0438892E-2,3.3367123E-2,5.7438802E-2,-1.2862948E-2,-5.032016E-2,2.7274543E-2,3.878275E-2,7.2915524E-2,5.0521728E-2,6.07523E-2,7.2501324E-2,9.970114E-2,4.44408E-2,7.5352065E-2,3.587505E-2,8.496904E-2,1.0477747E-1,7.6264374E-2,1.3052137E-1,1.0074045E-1,3.8118683E-2,1.0801994E-1],"categories":[],"categories_nodes":[],"categories_segments":[],"categories_sizes":[],"default_left":[0,0,0,0,0,0,0,0,0,0,0,0,0,0,0,0,0,0,0,0,0,0,0,0,0,0,0,0,0,0,0,0,0,0,0,0,0,0,0,0,0,0,0,0,0,0,0,0,0,0,0,0,0,0,0,0,0,0,0,0,0,0,0,0,0,0,0,0,0,0,0,0,0,0,0,0,0,0,0,0,0,0,0,0,0,0,0,0,0,0,0,0,0,0,0,0,0,0,0,0,0,0,0,0,0,0,0,0,0,0,0,0,0,0,0,0,0,0,0,0,0],"id":5,"left_children":[1,3,5,7,9,11,13,15,17,19,21,23,25,27,29,31,33,35,37,39,41,43,45,47,49,51,53,55,57,59,61,63,65,67,69,-1,71,73,75,77,79,81,83,85,87,89,91,93,95,97,99,101,103,105,107,109,111,113,115,117,119,-1,-1,-1,-1,-1,-1,-1,-1,-1,-1,-1,-1,-1,-1,-1,-1,-1,-1,-1,-1,-1,-1,-1,-1,-1,-1,-1,-1,-1,-1,-1,-1,-1,-1,-1,-1,-1,-1,-1,-1,-1,-1,-1,-1,-1,-1,-1,-1,-1,-1,-1,-1,-1,-1,-1,-1,-1,-1,-1,-1],"loss_changes":[1.2168052E4,2.101E3,1.5323384E3,1.5124512E2,2.4574207E2,2.1818542E2,2.6949072E2,1.6019531E1,1.1322388E1,4.6192017E1,2.3699419E1,4.0600586E1,2.2676147E1,5.0825684E1,1.6303467E1,9.399902E0,4.524048E0,3.5462036E0,7.3642883E0,8.820251E0,1.4919785E1,1.512495E1,1.6919739E1,1.2144714E1,2.959613E1,1.4964554E1,1.2842285E1,1.4714111E1,1.4190186E1,1.9367676E0,1.3535156E0,4.866699E0,1.4753418E1,2.1987677E0,1.1966553E0,0E0,8.689575E-1,8.7072754E-1,7.182678E0,5.3505173E0,5.541443E0,7.281395E0,1.0810387E1,9.654343E0,1.1286533E1,4.66543E0,8.34619E0,6.76474E0,9.730984E0,1.3582169E1,1.9933746E1,2.596283E0,6.731127E0,1.5616638E1,5.3687744E0,8.739807E0,5.152588E0,8.960144E0,8.344727E0,9.6191406E-1,1.1260071E0,0E0,0E0,0E0,0E0,0E0,0E0,0E0,0E0,0E0,0E0,0E0,0E0,0E0,0E0,0E0,0E0,0E0,0E0,0E0,0E0,0E0,0E0,0E0,0E0,0E0,0E0,0E0,0E0,0E0,0E0,0E0,0E0,0E0,0E0,0E0,0E0,0E0,0E0,0E0,0E0,0E0,0E0,0E0,0E0,0E0,0E0,0E0,0E0,0E0,0E0,0E0,0E0,0E0,0E0,0E0,0E0,0E0,0E0,0E0,0E0],"parents":[2147483647,0,0,1,1,2,2,3,3,4,4,5,5,6,6,7,7,8,8,9,9,10,10,11,11,12,12,13,13,14,14,15,15,16,16,17,17,18,18,19,19,20,20,21,21,22,22,23,23,24,24,25,25,26,26,27,27,28,28,29,29,30,30,31,31,32,32,33,33,34,34,36,36,37,37,38,38,39,39,40,40,41,41,42,42,43,43,44,44,45,45,46,46,47,47,48,48,49,49,50,50,51,51,52,52,53,53,54,54,55,55,56,56,57,57,58,58,59,59,60,60],"right_children":[2,4,6,8,10,12,14,16,18,20,22,24,26,28,30,32,34,36,38,40,42,44,46,48,50,52,54,56,58,60,62,64,66,68,70,-1,72,74,76,78,80,82,84,86,88,90,92,94,96,98,100,102,104,106,108,110,112,114,116,118,120,-1,-1,-1,-1,-1,-1,-1,-1,-1,-1,-1,-1,-1,-1,-1,-1,-1,-1,-1,-1,-1,-1,-1,-1,-1,-1,-1,-1,-1,-1,-1,-1,-1,-1,-1,-1,-1,-1,-1,-1,-1,-1,-1,-1,-1,-1,-1,-1,-1,-1,-1,-1,-1,-1,-1,-1,-1,-1,-1,-1],"split_conditions":[-2.635326E-1,-3.7928987E-1,2.6390338E-1,-3.9260864E-1,-3.3535445E-1,-5.9022162E-2,1.967646E0,-3.9689842E-1,-3.8697752E-1,-3.6326936E-1,-5.0617907E-2,-2.036609E-1,-4.656592E-1,7.584895E-1,3.408655E0,1.410925E-1,-4.7891414E-1,-2.8744252E0,-6.657151E-1,-1.0178031E0,-7.124314E-1,-1.4276956E0,-3.050773E-1,-8.007982E-1,-5.8006865E-1,-7.9000676E-1,-1.5408048E-1,-4.0617862E-1,-1.3671322E-1,3.0146565E0,-7.539569E-1,-1.3470772E-2,6.2357683E-2,-8.073892E-1,-2.8445664E-1,6.6257357E-3,-8.7853354E-1,1.4493431E0,-4.7844595E-1,-9.6106476E-1,-7.844971E-1,-1.8995203E-1,4.9187723E-1,-2.8445664E-1,-3.8570765E-1,-1.8297528E0,-2.965568E-1,-3.7872756E-1,-8.389819E-1,-1.333711E0,1.8324403E-1,2.0464222E0,-4.5736852E-1,-8.2922196E-1,6.46303E-2,-3.0215296E-1,-9.917117E-1,-9.1582245E-1,2.3543491E0,1.4535148E0,-6.533134E-1,1.2051161E-1,1.4991704E-1,-7.893025E-2,-3.0897362E-2,-7.4483275E-2,-5.2834213E-2,-5.9750713E-2,-2.0561201E-2,-7.057368E-2,-6.289571E-2,-6.744265E-2,-5.5751204E-2,-5.448514E-2,-3.6964417E-3,1.1222347E-3,-4.1816305E-2,-8.049031E-4,-2.6958594E-2,-4.550723E-2,-3.4198444E-2,-4.0533043E-2,-2.3501698E-2,-2.0056494E-2,-8.589513E-3,-1.6848832E-2,-6.0335185E-2,2.2174159E-2,-4.486825E-3,-1.1320892E-2,2.297536E-2,-1.5459516E-3,1.0871182E-2,9.239655E-2,3.1157056E-2,-4.834227E-5,1.9298365E-2,-5.578554E-3,2.6778176E-2,5.0438892E-2,3.3367123E-2,5.7438802E-2,-1.2862948E-2,-5.032016E-2,2.7274543E-2,3.878275E-2,7.2915524E-2,5.0521728E-2,6.07523E-2,7.2501324E-2,9.970114E-2,4.44408E-2,7.5352065E-2,3.587505E-2,8.496904E-2,1.0477747E-1,7.6264374E-2,1.3052137E-1,1.0074045E-1,3.8118683E-2,1.0801994E-1],"split_indices":[18,18,18,18,18,18,18,18,18,18,3,18,2,18,18,11,22,11,3,17,3,2,16,17,3,8,17,17,2,19,3,20,0,11,6,0,3,11,23,0,12,1,6,6,20,15,18,19,12,2,17,3,21,3,18,4,2,15,14,13,9,0,0,0,0,0,0,0,0,0,0,0,0,0,0,0,0,0,0,0,0,0,0,0,0,0,0,0,0,0,0,0,0,0,0,0,0,0,0,0,0,0,0,0,0,0,0,0,0,0,0,0,0,0,0,0,0,0,0,0,0],"split_type":[0,0,0,0,0,0,0,0,0,0,0,0,0,0,0,0,0,0,0,0,0,0,0,0,0,0,0,0,0,0,0,0,0,0,0,0,0,0,0,0,0,0,0,0,0,0,0,0,0,0,0,0,0,0,0,0,0,0,0,0,0,0,0,0,0,0,0,0,0,0,0,0,0,0,0,0,0,0,0,0,0,0,0,0,0,0,0,0,0,0,0,0,0,0,0,0,0,0,0,0,0,0,0,0,0,0,0,0,0,0,0,0,0,0,0,0,0,0,0,0,0],"sum_hessian":[1.1859E4,7.222E3,4.637E3,3.521E3,3.701E3,2.864E3,1.773E3,2.593E3,9.28E2,2.091E3,1.61E3,1.735E3,1.129E3,1.328E3,4.45E2,2.071E3,5.22E2,4.44E2,4.84E2,8.87E2,1.204E3,8.54E2,7.56E2,6.91E2,1.044E3,1.57E2,9.72E2,7.24E2,6.04E2,2.42E2,2.03E2,1.523E3,5.48E2,1.7E1,5.05E2,2E0,4.42E2,1.63E2,3.21E2,1.55E2,7.32E2,3.23E2,8.81E2,8.6E1,7.68E2,1.67E2,5.89E2,1.3E2,5.61E2,3.36E2,7.08E2,7.2E1,8.5E1,3.38E2,6.34E2,1.9E2,5.34E2,8.7E1,5.17E2,1.84E2,5.8E1,3.3E1,1.7E2,1.516E3,7E0,4.37E2,1.11E2,6E0,1.1E1,2.59E2,2.46E2,4.3E1,3.99E2,1.62E2,1E0,1E1,3.11E2,2.3E1,1.32E2,1.48E2,5.84E2,9E1,2.33E2,5.49E2,3.32E2,7.1E1,1.5E1,4.1E1,7.27E2,1E1,1.57E2,3.8E2,2.09E2,4E0,1.26E2,7.5E1,4.86E2,3.6E1,3E2,3.33E2,3.75E2,7.1E1,1E0,2E0,8.3E1,4.2E1,2.96E2,2.95E2,3.39E2,5.8E1,1.32E2,1.9E1,5.15E2,1.3E1,7.4E1,4.76E2,4.1E1,1.61E2,2.3E1,2E0,5.6E1],"tree_param":{"num_deleted":"0","num_feature":"24","num_nodes":"121","size_leaf_vector":"1"}},{"base_weights":[3.0269937E-4,-8.1524E-1,1.1365663E0,-1.3141228E0,-3.312079E-1,6.893005E-1,1.8586725E0,-1.434392E0,-1.0428373E0,-5.7211137E-1,-1.0721604E-1,4.2083782E-1,9.722552E-1,1.623412E0,2.4678898E0,-1.5110487E0,-1.3701622E0,-1.1276664E0,-8.796538E-1,-7.393756E-1,-4.8737502E-1,-3.0758262E-1,-2.6275508E-2,2.5641644E-1,5.4771113E-1,8.3783793E-1,1.1475334E0,1.4032065E0,1.7941939E0,2.2342184E0,2.7267773E0,-1.5344013E0,-1.3820417E0,-1.4879382E0,-1.3040619E0,-1.1980299E0,-1.0453526E0,-1.0530932E0,-7.8413695E-1,-9.0890056E-1,-6.862338E-1,-3.8484415E-1,-5.772392E-1,-6.564241E-1,-2.4862783E-1,-1.0266799E-1,1.7110914E-1,1.0882609E-1,4.1298747E-1,6.492223E-1,3.4692356E-1,5.381702E-1,9.196166E-1,5.334598E-1,1.1787701E0,1.5525074E0,1.2959782E0,2.107966E0,1.7334129E0,-3.1567793E-2,2.2466629E0,2.3447895E0,1.4216904E-1,-7.680302E-2,-2.6564438E-2,-6.965056E-2,-3.6743235E-2,-3.448487E-2,-7.476212E-2,-6.615946E-2,-3.2900892E-2,-6.012237E-2,1.0027999E-2,6.4048804E-3,-5.265194E-2,-5.64941E-2,-4.6104416E-2,3.4428777E-3,-4.0705286E-2,-3.5676427E-2,-4.90145E-2,-1.9308696E-2,-3.5950627E-2,-3.515097E-2,-1.636483E-2,-3.9645955E-2,-2.6793396E-2,-2.4386868E-2,-6.2398642E-2,-1.9552214E-2,-4.3067113E-3,-1.0270519E-2,1.6146097E-3,5.163025E-3,2.6247462E-2,4.518897E-2,4.5119296E-3,1.0334633E-2,2.7457003E-2,3.9369106E-2,2.6349207E-2,3.537537E-2,1.3941775E-2,1.6971799E-3,3.0679604E-2,3.9230626E-2,5.374992E-2,-2.3669661E-4,3.6773983E-2,6.2395167E-2,4.6613485E-2,6.7918666E-2,8.909719E-2,2.141289E-2,6.5354355E-2,5.305289E-2,1.09674685E-1,2.3454905E-2,8.722405E-2,1.1529018E-1,8.024514E-2,4.4866633E-2,1.1887684E-1],"categories":[],"categories_nodes":[],"categories_segments":[],"categories_sizes":[],"default_left":[0,0,0,0,0,0,0,0,0,0,0,0,0,0,0,0,0,0,0,0,0,0,0,0,0,0,0,0,0,0,0,0,0,0,0,0,0,0,0,0,0,0,0,0,0,0,0,0,0,0,0,0,0,0,0,0,0,0,0,0,0,0,0,0,0,0,0,0,0,0,0,0,0,0,0,0,0,0,0,0,0,0,0,0,0,0,0,0,0,0,0,0,0,0,0,0,0,0,0,0,0,0,0,0,0,0,0,0,0,0,0,0,0,0,0,0,0,0,0,0,0,0,0],"id":6,"left_children":[1,3,5,7,9,11,13,15,17,19,21,23,25,27,29,31,33,35,37,39,41,43,45,47,49,51,53,55,57,59,61,63,65,67,69,71,73,75,77,79,81,83,85,87,89,91,93,95,97,99,101,103,105,107,109,111,113,115,117,-1,119,121,-1,-1,-1,-1,-1,-1,-1,-1,-1,-1,-1,-1,-1,-1,-1,-1,-1,-1,-1,-1,-1,-1,-1,-1,-1,-1,-1,-1,-1,-1,-1,-1,-1,-1,-1,-1,-1,-1,-1,-1,-1,-1,-1,-1,-1,-1,-1,-1,-1,-1,-1,-1,-1,-1,-1,-1,-1,-1,-1,-1,-1],"loss_changes":[1.0991251E4,1.6669517E3,1.599375E3,1.0943701E2,1.8912387E2,2.3218896E2,2.6759424E2,9.514648E0,1.3515137E1,2.3578491E1,2.9475834E1,3.26734E1,3.4143555E1,4.900415E1,2.5727783E1,1.0817871E0,8.110107E0,2.7208252E0,5.1878357E0,4.475281E0,1.0134247E1,1.0592747E1,1.9559565E1,1.5830513E1,1.785379E1,2.0261963E1,1.1724121E1,7.6416016E0,1.099292E1,1.14748535E1,4.2452393E0,6.669922E-1,2.0449829E-1,1.6332397E0,9.447388E0,2.4838867E0,3.0572205E0,2.2567749E-1,6.140106E0,1.1416016E0,4.0008087E0,9.437691E0,4.9020996E0,6.8753014E0,1.0356964E1,1.2971467E1,8.636534E0,5.1639953E0,9.239658E0,9.515427E0,7.1681595E0,6.976635E0,1.3085388E1,3.5914335E0,9.266052E0,8.581177E0,2.8814697E0,8.417297E0,8.263306E0,0E0,6.9644775E0,8.527832E-1,0E0,0E0,0E0,0E0,0E0,0E0,0E0,0E0,0E0,0E0,0E0,0E0,0E0,0E0,0E0,0E0,0E0,0E0,0E0,0E0,0E0,0E0,0E0,0E0,0E0,0E0,0E0,0E0,0E0,0E0,0E0,0E0,0E0,0E0,0E0,0E0,0E0,0E0,0E0,0E0,0E0,0E0,0E0,0E0,0E0,0E0,0E0,0E0,0E0,0E0,0E0,0E0,0E0,0E0,0E0,0E0,0E0,0E0,0E0,0E0,0E0],"parents":[2147483647,0,0,1,1,2,2,3,3,4,4,5,5,6,6,7,7,8,8,9,9,10,10,11,11,12,12,13,13,14,14,15,15,16,16,17,17,18,18,19,19,20,20,21,21,22,22,23,23,24,24,25,25,26,26,27,27,28,28,29,29,30,30,31,31,32,32,33,33,34,34,35,35,36,36,37,37,38,38,39,39,40,40,41,41,42,42,43,43,44,44,45,45,46,46,47,47,48,48,49,49,50,50,51,51,52,52,53,53,54,54,55,55,56,56,57,57,58,58,60,60,61,61],"right_children":[2,4,6,8,10,12,14,16,18,20,22,24,26,28,30,32,34,36,38,40,42,44,46,48,50,52,54,56,58,60,62,64,66,68,70,72,74,76,78,80,82,84,86,88,90,92,94,96,98,100,102,104,106,108,110,112,114,116,118,-1,120,122,-1,-1,-1,-1,-1,-1,-1,-1,-1,-1,-1,-1,-1,-1,-1,-1,-1,-1,-1,-1,-1,-1,-1,-1,-1,-1,-1,-1,-1,-1,-1,-1,-1,-1,-1,-1,-1,-1,-1,-1,-1,-1,-1,-1,-1,-1,-1,-1,-1,-1,-1,-1,-1,-1,-1,-1,-1,-1,-1,-1,-1],"split_conditions":[-2.8426984E-1,-3.8085303E-1,2.1690334E-1,-3.9491662E-1,-3.483388E-1,-1.3688312E-1,1.6772572E0,-6.3380724E-1,-3.8697752E-1,-3.7154055E-1,-6.605244E-1,-2.3525836E-1,1.9066514E-2,5.337767E-1,3.0103815E0,-3.9783654E-1,-9.6437925E-1,-3.9096487E-1,-6.605244E-1,-7.793081E-1,1.1090906E-1,-1.4276956E0,7.282553E-1,9.402812E-2,-1.3414596E-1,-7.539569E-1,-1.2436426E0,1.4671846E-1,-6.70452E-1,-2.5078628E0,-5.930454E-1,8.9450634E-1,9.9971116E-1,-1.122549E0,-2.6072553E-1,-8.796376E-2,-2.8744252E0,9.6163616E-2,-3.9793694E-1,-9.9703366E-1,-1.403398E0,-8.882777E-1,-3.7748224E-1,-2.4572797E-1,-3.235336E-1,-3.184919E-1,-1.9593321E-1,-1.9626111E0,-5.0220823E-1,4.215502E-2,-1.3058879E0,-1.0445672E0,2.4542204E-1,-5.5235136E-1,3.1400213E-1,-1.9521587E-1,-1.6221914E0,-2.2117297E-1,-1.3940873E0,-3.1567793E-2,4.4377985E0,-3.582427E-1,1.4216904E-1,-7.680302E-2,-2.6564438E-2,-6.965056E-2,-3.6743235E-2,-3.448487E-2,-7.476212E-2,-6.615946E-2,-3.2900892E-2,-6.012237E-2,1.0027999E-2,6.4048804E-3,-5.265194E-2,-5.64941E-2,-4.6104416E-2,3.4428777E-3,-4.0705286E-2,-3.5676427E-2,-4.90145E-2,-1.9308696E-2,-3.5950627E-2,-3.515097E-2,-1.636483E-2,-3.9645955E-2,-2.6793396E-2,-2.4386868E-2,-6.2398642E-2,-1.9552214E-2,-4.3067113E-3,-1.0270519E-2,1.6146097E-3,5.163025E-3,2.6247462E-2,4.518897E-2,4.5119296E-3,1.0334633E-2,2.7457003E-2,3.9369106E-2,2.6349207E-2,3.537537E-2,1.3941775E-2,1.6971799E-3,3.0679604E-2,3.9230626E-2,5.374992E-2,-2.3669661E-4,3.6773983E-2,6.2395167E-2,4.6613485E-2,6.7918666E-2,8.909719E-2,2.141289E-2,6.5354355E-2,5.305289E-2,1.09674685E-1,2.3454905E-2,8.722405E-2,1.1529018E-1,8.024514E-2,4.4866633E-2,1.1887684E-1],"split_indices":[18,18,18,18,18,18,18,1,18,18,3,18,18,18,18,18,11,18,3,12,17,2,7,6,19,3,2,17,17,1,3,2,13,0,20,20,11,7,19,17,16,12,19,6,18,18,21,10,3,17,0,9,6,13,19,13,2,10,9,0,19,10,0,0,0,0,0,0,0,0,0,0,0,0,0,0,0,0,0,0,0,0,0,0,0,0,0,0,0,0,0,0,0,0,0,0,0,0,0,0,0,0,0,0,0,0,0,0,0,0,0,0,0,0,0,0,0,0,0,0,0,0,0],"split_type":[0,0,0,0,0,0,0,0,0,0,0,0,0,0,0,0,0,0,0,0,0,0,0,0,0,0,0,0,0,0,0,0,0,0,0,0,0,0,0,0,0,0,0,0,0,0,0,0,0,0,0,0,0,0,0,0,0,0,0,0,0,0,0,0,0,0,0,0,0,0,0,0,0,0,0,0,0,0,0,0,0,0,0,0,0,0,0,0,0,0,0,0,0,0,0,0,0,0,0,0,0,0,0,0,0,0,0,0,0,0,0,0,0,0,0,0,0,0,0,0,0,0,0],"sum_hessian":[1.1859E4,6.904E3,4.955E3,3.399E3,3.505E3,3.061E3,1.894E3,2.352E3,1.047E3,1.688E3,1.817E3,1.572E3,1.489E3,1.369E3,5.25E2,1.062E3,1.29E3,6.85E2,3.62E2,5.65E2,1.123E3,5.22E2,1.295E3,6.86E2,8.86E2,8.46E2,6.43E2,6.02E2,7.67E2,2.81E2,2.44E2,8.9E2,1.72E2,4.56E2,8.34E2,3.62E2,3.23E2,1.25E2,2.37E2,1.31E2,4.34E2,5.27E2,5.96E2,7.4E1,4.48E2,9.34E2,3.61E2,3.54E2,3.32E2,5.87E2,2.99E2,1.83E2,6.63E2,3.2E1,6.11E2,2.46E2,3.56E2,1.19E2,6.48E2,1E0,2.8E2,6.2E1,1.82E2,8.88E2,2E0,1.68E2,4E0,5E0,4.51E2,8.09E2,2.5E1,3.61E2,1E0,2E0,3.21E2,7.4E1,5.1E1,8E0,2.29E2,3.8E1,9.3E1,4.4E1,3.9E2,7.9E1,4.48E2,9.3E1,5.03E2,5.9E1,1.5E1,2.38E2,2.1E2,5.3E2,4.04E2,3.04E2,5.7E1,7E0,3.47E2,1.33E2,1.99E2,2.73E2,3.14E2,4.6E1,2.53E2,2.4E1,1.59E2,3.58E2,3.05E2,9E0,2.3E1,4.74E2,1.37E2,1.37E2,1.09E2,5E0,3.51E2,1E1,1.09E2,6E0,6.42E2,2.54E2,2.6E1,2E0,6E1],"tree_param":{"num_deleted":"0","num_feature":"24","num_nodes":"123","size_leaf_vector":"1"}},{"base_weights":[3.2639783E-4,-7.3268676E-1,1.141886E0,-1.2317119E0,-2.5772753E-1,7.329028E-1,1.8017479E0,-1.3439151E0,-9.170865E-1,-4.6240368E-1,8.219193E-3,5.120789E-1,1.0173935E0,1.5948503E0,2.4142263E0,-1.3859116E0,-1.2035564E0,-1.0239705E0,-8.1712675E-1,-6.196031E-1,-3.4617504E-1,-9.686391E-2,1.2689532E-1,3.0873844E-1,6.0037047E-1,8.3621126E-1,1.113976E0,1.4258362E0,1.7947516E0,2.3041122E0,2.8613348E0,-8.7862015E-1,-1.395337E0,-6.8732464E-1,-1.2209426E0,6.191385E-3,-1.0294319E0,-9.8095334E-1,-7.3114944E-1,-4.371302E-1,-6.683159E-1,-5.1552254E-1,-2.8357327E-1,-4.5777252E-1,-5.590694E-2,3.5869995E-1,4.414754E-2,-1.3170992E-1,3.5897455E-1,4.1365427E-1,7.279602E-1,1.0942618E0,7.1300036E-1,9.7871155E-1,1.247163E0,1.6602372E0,1.3394878E0,1.4035387E0,1.8577477E0,2.084763E0,2.4248464E0,9.5472835E-2,1.4682041E-1,-6.0675543E-2,-1.6068516E-2,-7.069188E-2,-5.932005E-2,-5.786377E-2,-1.6805947E-2,-6.478799E-2,-5.7845246E-2,-6.1464038E-2,-5.0243746E-2,-4.9319386E-2,-2.3786693E-3,2.0215167E-3,-3.7800457E-2,-7.1088664E-2,-2.0415558E-2,-4.2701796E-2,-3.1158302E-2,-3.732148E-2,-2.1176115E-2,-1.811423E-2,-7.635904E-3,2.2839108E-2,-2.8457714E-2,2.1108832E-2,-4.1705943E-3,1.0823168E-2,2.5763923E-2,-1.6714666E-3,9.287852E-3,-1.4617152E-2,1.0337645E-2,8.690437E-3,2.3780126E-2,2.2218585E-2,-2.626032E-2,2.9518982E-2,4.6466168E-2,5.6064606E-2,-2.5694309E-2,4.568344E-2,2.7494688E-2,4.344876E-2,5.6137618E-2,-1.9374321E-3,6.3164674E-2,6.792386E-2,9.1974154E-2,4.4052005E-2,6.810599E-2,7.717964E-2,3.3841018E-2,9.486482E-2,6.8217754E-2,2.3978978E-2,1.0465504E-1,1.2675665E-1,1.0878231E-1],"categories":[],"categories_nodes":[],"categories_segments":[],"categories_sizes":[],"default_left":[0,0,0,0,0,0,0,0,0,0,0,0,0,0,0,0,0,0,0,0,0,0,0,0,0,0,0,0,0,0,0,0,0,0,0,0,0,0,0,0,0,0,0,0,0,0,0,0,0,0,0,0,0,0,0,0,0,0,0,0,0,0,0,0,0,0,0,0,0,0,0,0,0,0,0,0,0,0,0,0,0,0,0,0,0,0,0,0,0,0,0,0,0,0,0,0,0,0,0,0,0,0,0,0,0,0,0,0,0,0,0,0,0,0,0,0,0,0,0,0,0],"id":7,"left_children":[1,3,5,7,9,11,13,15,17,19,21,23,25,27,29,31,33,35,37,39,41,43,45,47,49,51,53,55,57,59,61,63,65,67,69,-1,71,73,75,77,79,81,83,85,87,89,91,93,95,97,99,101,103,105,107,109,111,113,115,117,119,-1,-1,-1,-1,-1,-1,-1,-1,-1,-1,-1,-1,-1,-1,-1,-1,-1,-1,-1,-1,-1,-1,-1,-1,-1,-1,-1,-1,-1,-1,-1,-1,-1,-1,-1,-1,-1,-1,-1,-1,-1,-1,-1,-1,-1,-1,-1,-1,-1,-1,-1,-1,-1,-1,-1,-1,-1,-1,-1,-1],"loss_changes":[9.925026E3,1.7116533E3,1.2503477E3,1.23101074E2,2.0151456E2,1.7946509E2,2.2095166E2,1.3622559E1,9.088867E0,3.8008606E1,2.0102842E1,2.8809174E1,2.0959717E1,4.2342773E1,1.5365234E1,8.2890625E0,4.5909424E0,2.9169922E0,6.1141663E0,7.6010437E0,1.2628555E1,1.2612782E1,1.4504424E1,1.0911354E1,2.6499847E1,1.3177643E1,1.3425964E1,1.2450317E1,1.2302856E1,4.5579834E0,3.9575195E-1,6.888109E0,5.86792E0,3.2421045E0,1.2989502E0,0E0,9.388428E-1,7.849426E-1,6.2069244E0,4.8110085E0,5.329071E0,6.5667725E0,9.029076E0,9.122206E0,1.0147306E1,4.320427E0,6.1471725E0,2.8332276E0,9.44096E0,1.3470657E1,1.7929688E1,6.6618347E0,9.316681E0,5.473419E0,8.470398E0,7.8321533E0,4.350891E0,7.9118958E0,7.519165E0,8.1640625E-1,7.507324E-1,0E0,0E0,0E0,0E0,0E0,0E0,0E0,0E0,0E0,0E0,0E0,0E0,0E0,0E0,0E0,0E0,0E0,0E0,0E0,0E0,0E0,0E0,0E0,0E0,0E0,0E0,0E0,0E0,0E0,0E0,0E0,0E0,0E0,0E0,0E0,0E0,0E0,0E0,0E0,0E0,0E0,0E0,0E0,0E0,0E0,0E0,0E0,0E0,0E0,0E0,0E0,0E0,0E0,0E0,0E0,0E0,0E0,0E0,0E0,0E0],"parents":[2147483647,0,0,1,1,2,2,3,3,4,4,5,5,6,6,7,7,8,8,9,9,10,10,11,11,12,12,13,13,14,14,15,15,16,16,17,17,18,18,19,19,20,20,21,21,22,22,23,23,24,24,25,25,26,26,27,27,28,28,29,29,30,30,31,31,32,32,33,33,34,34,36,36,37,37,38,38,39,39,40,40,41,41,42,42,43,43,44,44,45,45,46,46,47,47,48,48,49,49,50,50,51,51,52,52,53,53,54,54,55,55,56,56,57,57,58,58,59,59,60,60],"right_children":[2,4,6,8,10,12,14,16,18,20,22,24,26,28,30,32,34,36,38,40,42,44,46,48,50,52,54,56,58,60,62,64,66,68,70,-1,72,74,76,78,80,82,84,86,88,90,92,94,96,98,100,102,104,106,108,110,112,114,116,118,120,-1,-1,-1,-1,-1,-1,-1,-1,-1,-1,-1,-1,-1,-1,-1,-1,-1,-1,-1,-1,-1,-1,-1,-1,-1,-1,-1,-1,-1,-1,-1,-1,-1,-1,-1,-1,-1,-1,-1,-1,-1,-1,-1,-1,-1,-1,-1,-1,-1,-1,-1,-1,-1,-1,-1,-1,-1,-1,-1,-1],"split_conditions":[-2.635326E-1,-3.7928987E-1,2.6390338E-1,-3.9260864E-1,-3.3535445E-1,-8.1232406E-2,1.967646E0,-3.9738706E-1,-3.8697752E-1,-3.6326936E-1,-5.0617907E-2,-6.1380816E-1,-5.619012E-1,7.584895E-1,5.4620605E0,-9.208663E-2,-4.7891414E-1,-2.8744252E0,-6.657151E-1,-8.409047E-1,-7.124314E-1,-1.4276956E0,-1.17506966E-1,-1.310215E0,-1.071695E-1,-1.2782854E0,6.46303E-2,-4.0617862E-1,-1.3671322E-1,-4.5030132E-1,-8.629615E-1,7.5858676E-1,-3.9203677E-1,-8.073892E-1,-8.846737E-1,6.191385E-3,-8.7853354E-1,1.4493431E0,-4.7844595E-1,-1.9602748E0,-7.844971E-1,-1.8995203E-1,4.9187723E-1,-2.2189915E0,-3.8570765E-1,-3.0236465E-1,-2.965568E-1,4.4250408E-1,-8.519545E-1,5.048181E-1,-1.7107435E-1,5.4797044E0,2.159475E-2,1.5526871E-1,-1.7641864E0,-2.8938982E-1,-8.846737E-1,2.6381783E0,2.3543491E0,-4.563351E-1,7.026676E-1,9.5472835E-2,1.4682041E-1,-6.0675543E-2,-1.6068516E-2,-7.069188E-2,-5.932005E-2,-5.786377E-2,-1.6805947E-2,-6.478799E-2,-5.7845246E-2,-6.1464038E-2,-5.0243746E-2,-4.9319386E-2,-2.3786693E-3,2.0215167E-3,-3.7800457E-2,-7.1088664E-2,-2.0415558E-2,-4.2701796E-2,-3.1158302E-2,-3.732148E-2,-2.1176115E-2,-1.811423E-2,-7.635904E-3,2.2839108E-2,-2.8457714E-2,2.1108832E-2,-4.1705943E-3,1.0823168E-2,2.5763923E-2,-1.6714666E-3,9.287852E-3,-1.4617152E-2,1.0337645E-2,8.690437E-3,2.3780126E-2,2.2218585E-2,-2.626032E-2,2.9518982E-2,4.6466168E-2,5.6064606E-2,-2.5694309E-2,4.568344E-2,2.7494688E-2,4.344876E-2,5.6137618E-2,-1.9374321E-3,6.3164674E-2,6.792386E-2,9.1974154E-2,4.4052005E-2,6.810599E-2,7.717964E-2,3.3841018E-2,9.486482E-2,6.8217754E-2,2.3978978E-2,1.0465504E-1,1.2675665E-1,1.0878231E-1],"split_indices":[18,18,18,18,18,18,18,18,18,18,3,3,3,18,18,5,22,11,3,17,3,2,16,2,1,0,18,17,2,3,3,11,19,11,2,0,3,11,23,2,12,1,6,11,20,18,18,17,12,20,18,20,19,1,10,3,2,19,14,22,16,0,0,0,0,0,0,0,0,0,0,0,0,0,0,0,0,0,0,0,0,0,0,0,0,0,0,0,0,0,0,0,0,0,0,0,0,0,0,0,0,0,0,0,0,0,0,0,0,0,0,0,0,0,0,0,0,0,0,0,0],"split_type":[0,0,0,0,0,0,0,0,0,0,0,0,0,0,0,0,0,0,0,0,0,0,0,0,0,0,0,0,0,0,0,0,0,0,0,0,0,0,0,0,0,0,0,0,0,0,0,0,0,0,0,0,0,0,0,0,0,0,0,0,0,0,0,0,0,0,0,0,0,0,0,0,0,0,0,0,0,0,0,0,0,0,0,0,0,0,0,0,0,0,0,0,0,0,0,0,0,0,0,0,0,0,0,0,0,0,0,0,0,0,0,0,0,0,0,0,0,0,0,0,0],"sum_hessian":[1.1859E4,7.222E3,4.637E3,3.521E3,3.701E3,2.864E3,1.773E3,2.593E3,9.28E2,2.091E3,1.61E3,1.614E3,1.25E3,1.328E3,4.45E2,1.989E3,6.04E2,4.44E2,4.84E2,8.87E2,1.204E3,8.54E2,7.56E2,4.9E2,1.124E3,4.38E2,8.12E2,7.24E2,6.04E2,3.62E2,8.3E1,3.8E1,1.951E3,2.1E1,5.83E2,2E0,4.42E2,1.63E2,3.21E2,1.89E2,6.98E2,3.23E2,8.81E2,8.6E1,7.68E2,1.98E2,5.58E2,5E1,4.4E2,4.58E2,6.66E2,1.39E2,2.99E2,4.07E2,4.05E2,1.9E2,5.34E2,8.7E1,5.17E2,1.35E2,2.27E2,8E0,7.5E1,2.3E1,1.5E1,1.787E3,1.64E2,8E0,1.3E1,2.6E2,3.23E2,4.3E1,3.99E2,1.62E2,1E0,1E1,3.11E2,4E0,1.85E2,1.33E2,5.65E2,9E1,2.33E2,5.49E2,3.32E2,9E0,7.7E1,4.1E1,7.27E2,1.05E2,9.3E1,3.61E2,1.97E2,3.4E1,1.6E1,1.71E2,2.69E2,4.44E2,1.4E1,3.98E2,2.68E2,1.37E2,2E0,1.32E2,1.67E2,2.35E2,1.72E2,5E0,4E2,7.4E1,1.16E2,2.7E1,5.07E2,7.2E1,1.5E1,4.76E2,4.1E1,1E0,1.34E2,1.51E2,7.6E1],"tree_param":{"num_deleted":"0","num_feature":"24","num_nodes":"121","size_leaf_vector":"1"}},{"base_weights":[3.712987E-4,-7.362009E-1,1.0266083E0,-1.196821E0,-3.0904803E-1,6.225824E-1,1.6789043E0,-1.3012567E0,-9.696025E-1,-5.2763426E-1,-9.642377E-2,3.799057E-1,8.7835944E-1,1.4181927E0,2.1352673E0,-1.3747406E0,-1.2422436E0,-1.0791943E0,-8.7434334E-1,-6.7881984E-1,-4.405425E-1,-2.806667E-1,-2.1998242E-2,2.3669916E-1,5.023747E-1,5.3787124E-1,9.3691814E-1,1.2658823E0,1.5671632E0,1.9466279E0,2.4676428E0,-1.3727945E-2,-1.3755646E0,-1.3532928E0,-1.179728E0,-1.0823581E0,1.122343E-2,-9.9177843E-1,-8.13002E-1,-8.479288E-1,-6.2256104E-1,-4.9868304E-1,-3.0386445E-1,-3.9299268E-1,-1.2897715E-1,-9.2614844E-2,1.6045623E-1,1.515676E-1,4.483901E-1,5.4521984E-1,4.0630165E-2,8.206758E-1,2.50221E-1,8.0762476E-1,1.0822381E0,1.4041508E0,1.1666715E0,1.8328413E0,1.476729E0,1.3227075E0,2.0019026E0,2.1202898E0,2.5737388E0,-6.881412E-2,-1.6427701E-2,-3.179872E-2,-6.807677E-2,-5.9899975E-2,-2.8748333E-2,-3.2763183E-2,-5.4779388E-2,-2.6677022E-2,-5.168618E-2,-1.5838346E-2,-4.1560885E-2,-4.817314E-2,-3.6009952E-2,-2.6099408E-2,-3.524224E-2,-5.013702E-2,-2.4412837E-2,2.6847632E-4,-1.686701E-2,-1.7417334E-2,-4.847794E-2,-2.0664157E-2,-3.8846221E-3,3.8039796E-2,-5.3678052E-3,4.816709E-3,2.4744164E-2,8.68851E-3,-1.5726328E-2,-1.5374324E-2,2.4206031E-2,1.7408973E-2,3.1335678E-2,-1.9577594E-2,1.3694117E-2,5.0499225E-3,4.3407224E-2,2.8382678E-2,4.1184528E-4,2.689046E-2,4.3156784E-2,6.245644E-2,4.9824644E-2,4.3749325E-2,7.3663756E-2,2.2659967E-2,5.898231E-2,5.7950515E-2,9.637961E-2,2.6083777E-2,7.4844144E-2,1.0068375E-2,7.408439E-2,1.0241908E-1,8.195593E-2,3.988258E-2,1.0752894E-1,7.451498E-2,1.2979E-1],"categories":[],"categories_nodes":[],"categories_segments":[],"categories_sizes":[],"default_left":[0,0,0,0,0,0,0,0,0,0,0,0,0,0,0,0,0,0,0,0,0,0,0,0,0,0,0,0,0,0,0,0,0,0,0,0,0,0,0,0,0,0,0,0,0,0,0,0,0,0,0,0,0,0,0,0,0,0,0,0,0,0,0,0,0,0,0,0,0,0,0,0,0,0,0,0,0,0,0,0,0,0,0,0,0,0,0,0,0,0,0,0,0,0,0,0,0,0,0,0,0,0,0,0,0,0,0,0,0,0,0,0,0,0,0,0,0,0,0,0,0,0,0],"id":8,"left_children":[1,3,5,7,9,11,13,15,17,19,21,23,25,27,29,31,33,35,37,39,41,43,45,47,49,51,53,55,57,59,61,-1,63,65,67,69,-1,71,73,75,77,79,81,83,85,87,89,91,93,95,97,99,101,103,105,107,109,111,113,115,117,119,121,-1,-1,-1,-1,-1,-1,-1,-1,-1,-1,-1,-1,-1,-1,-1,-1,-1,-1,-1,-1,-1,-1,-1,-1,-1,-1,-1,-1,-1,-1,-1,-1,-1,-1,-1,-1,-1,-1,-1,-1,-1,-1,-1,-1,-1,-1,-1,-1,-1,-1,-1,-1,-1,-1,-1,-1,-1,-1,-1,-1],"loss_changes":[8.965702E3,1.3582244E3,1.3050815E3,7.756885E1,1.6652173E2,1.8972815E2,2.2243701E2,8.148926E0,1.0018005E1,2.2967133E1,2.4922926E1,2.7468933E1,2.9204468E1,2.5448242E1,3.8270508E1,5.3149414E-1,7.227295E0,2.2392578E0,3.2781372E0,5.5990295E0,8.780365E0,8.860542E0,1.6712933E1,1.3033722E1,1.6734497E1,1.7772732E1,2.2987915E1,6.633545E0,1.1877319E1,1.2629761E1,3.5718994E0,0E0,3.0090332E-1,1.8006592E0,8.383057E0,2.0112305E0,0E0,3.1004333E0,3.1535492E0,1.6377335E0,3.662262E0,3.6464539E0,3.5007286E0,7.3846626E0,3.2339346E0,1.1844302E1,7.715108E0,5.435877E0,5.7665024E0,1.2226379E1,7.466179E0,3.7043152E0,8.521637E0,9.660706E0,7.2697144E0,7.745697E0,2.770172E0,7.342804E0,8.034607E0,6.6542053E0,3.4715576E0,8.0844116E-1,5.0549316E-1,0E0,0E0,0E0,0E0,0E0,0E0,0E0,0E0,0E0,0E0,0E0,0E0,0E0,0E0,0E0,0E0,0E0,0E0,0E0,0E0,0E0,0E0,0E0,0E0,0E0,0E0,0E0,0E0,0E0,0E0,0E0,0E0,0E0,0E0,0E0,0E0,0E0,0E0,0E0,0E0,0E0,0E0,0E0,0E0,0E0,0E0,0E0,0E0,0E0,0E0,0E0,0E0,0E0,0E0,0E0,0E0,0E0,0E0,0E0,0E0],"parents":[2147483647,0,0,1,1,2,2,3,3,4,4,5,5,6,6,7,7,8,8,9,9,10,10,11,11,12,12,13,13,14,14,15,15,16,16,17,17,18,18,19,19,20,20,21,21,22,22,23,23,24,24,25,25,26,26,27,27,28,28,29,29,30,30,32,32,33,33,34,34,35,35,37,37,38,38,39,39,40,40,41,41,42,42,43,43,44,44,45,45,46,46,47,47,48,48,49,49,50,50,51,51,52,52,53,53,54,54,55,55,56,56,57,57,58,58,59,59,60,60,61,61,62,62],"right_children":[2,4,6,8,10,12,14,16,18,20,22,24,26,28,30,32,34,36,38,40,42,44,46,48,50,52,54,56,58,60,62,-1,64,66,68,70,-1,72,74,76,78,80,82,84,86,88,90,92,94,96,98,100,102,104,106,108,110,112,114,116,118,120,122,-1,-1,-1,-1,-1,-1,-1,-1,-1,-1,-1,-1,-1,-1,-1,-1,-1,-1,-1,-1,-1,-1,-1,-1,-1,-1,-1,-1,-1,-1,-1,-1,-1,-1,-1,-1,-1,-1,-1,-1,-1,-1,-1,-1,-1,-1,-1,-1,-1,-1,-1,-1,-1,-1,-1,-1,-1,-1,-1,-1],"split_conditions":[-2.8426984E-1,-3.822288E-1,2.1690334E-1,-3.9562583E-1,-3.483388E-1,-1.3688312E-1,1.2441059E0,-6.9721514E-1,-3.904964E-1,-3.7154055E-1,-6.605244E-1,-2.3139791E-1,-4.656592E-1,5.337767E-1,3.0103815E0,-9.163592E-2,-9.6437925E-1,-8.796376E-2,-4.8233286E-1,-7.74119E-1,7.4234086E-1,-3.2118648E-1,7.282553E-1,8.022047E-1,7.5270854E-2,-7.4193007E-1,9.291493E-3,1.4671846E-1,-3.5891023E-1,-4.0952954E-1,-5.930454E-1,-1.3727945E-2,1.0901468E0,-1.122549E0,-2.6072553E-1,-4.7891414E-1,1.122343E-2,-2.4911077E0,-4.7822264E-1,6.4315724E-1,-3.3181584E-1,-2.3518772E0,-9.08813E-2,1.0917842E-1,-1.310215E0,-3.9831683E-1,-1.9593321E-1,1.314821E0,-8.076586E-1,-6.0807E-1,-1.6934675E-1,-9.364481E-1,-1.4931687E-2,-7.7471966E-1,-2.1925358E-1,-2.5549927E-1,-1.4663604E-1,-7.6433825E-1,-9.917117E-1,-3.0196956E-1,1.1182948E0,-3.582427E-1,-4.943767E-1,-6.881412E-2,-1.6427701E-2,-3.179872E-2,-6.807677E-2,-5.9899975E-2,-2.8748333E-2,-3.2763183E-2,-5.4779388E-2,-2.6677022E-2,-5.168618E-2,-1.5838346E-2,-4.1560885E-2,-4.817314E-2,-3.6009952E-2,-2.6099408E-2,-3.524224E-2,-5.013702E-2,-2.4412837E-2,2.6847632E-4,-1.686701E-2,-1.7417334E-2,-4.847794E-2,-2.0664157E-2,-3.8846221E-3,3.8039796E-2,-5.3678052E-3,4.816709E-3,2.4744164E-2,8.68851E-3,-1.5726328E-2,-1.5374324E-2,2.4206031E-2,1.7408973E-2,3.1335678E-2,-1.9577594E-2,1.3694117E-2,5.0499225E-3,4.3407224E-2,2.8382678E-2,4.1184528E-4,2.689046E-2,4.3156784E-2,6.245644E-2,4.9824644E-2,4.3749325E-2,7.3663756E-2,2.2659967E-2,5.898231E-2,5.7950515E-2,9.637961E-2,2.6083777E-2,7.4844144E-2,1.0068375E-2,7.408439E-2,1.0241908E-1,8.195593E-2,3.988258E-2,1.0752894E-1,7.451498E-2,1.2979E-1],"split_indices":[18,18,18,18,18,18,18,1,18,18,3,18,2,18,18,5,11,20,1,12,7,18,7,7,19,7,18,17,17,2,3,0,21,0,20,22,0,11,23,1,14,2,5,20,2,19,21,17,2,12,2,15,19,3,17,2,19,3,2,14,15,10,2,0,0,0,0,0,0,0,0,0,0,0,0,0,0,0,0,0,0,0,0,0,0,0,0,0,0,0,0,0,0,0,0,0,0,0,0,0,0,0,0,0,0,0,0,0,0,0,0,0,0,0,0,0,0,0,0,0,0,0,0],"split_type":[0,0,0,0,0,0,0,0,0,0,0,0,0,0,0,0,0,0,0,0,0,0,0,0,0,0,0,0,0,0,0,0,0,0,0,0,0,0,0,0,0,0,0,0,0,0,0,0,0,0,0,0,0,0,0,0,0,0,0,0,0,0,0,0,0,0,0,0,0,0,0,0,0,0,0,0,0,0,0,0,0,0,0,0,0,0,0,0,0,0,0,0,0,0,0,0,0,0,0,0,0,0,0,0,0,0,0,0,0,0,0,0,0,0,0,0,0,0,0,0,0,0,0],"sum_hessian":[1.1859E4,6.904E3,4.955E3,3.321E3,3.583E3,3.061E3,1.894E3,2.272E3,1.049E3,1.766E3,1.817E3,1.572E3,1.489E3,1.208E3,6.86E2,1.002E3,1.27E3,4.83E2,5.66E2,6.43E2,1.123E3,5.22E2,1.295E3,7.26E2,8.46E2,2.2E2,1.269E3,6.02E2,6.06E2,4.42E2,2.44E2,1E0,1.001E3,4.5E2,8.2E2,4.82E2,1E0,1.89E2,3.77E2,1.57E2,4.86E2,7.86E2,3.37E2,2.99E2,2.23E2,9.34E2,3.61E2,5.19E2,2.07E2,7.74E2,7.2E1,1.1E2,1.1E2,6.75E2,5.94E2,2.46E2,3.56E2,1.49E2,4.57E2,3.8E1,4.04E2,6.2E1,1.82E2,1E3,1E0,6E0,4.44E2,7.95E2,2.5E1,1.6E1,4.66E2,1.7E1,1.72E2,1.4E1,3.63E2,7.9E1,7.8E1,2.22E2,2.64E2,1.4E1,7.72E2,3.3E1,3.04E2,2.79E2,2E1,3.3E1,1.9E2,1.5E1,9.19E2,3.04E2,5.7E1,4.96E2,2.3E1,9E0,1.98E2,2.28E2,5.46E2,2.5E1,4.7E1,7E0,1.03E2,4.7E1,6.3E1,1.17E2,5.58E2,1.97E2,3.97E2,3E1,2.16E2,7E0,3.49E2,2E1,1.29E2,1E1,4.47E2,5E0,3.3E1,3.54E2,5E1,2E0,6E1,5E0,1.77E2],"tree_param":{"num_deleted":"0","num_feature":"24","num_nodes":"123","size_leaf_vector":"1"}},{"base_weights":[4.0452677E-4,-6.995016E-1,9.7555614E-1,-1.1371303E0,-2.9366955E-1,5.428446E-1,1.5272228E0,-1.2363204E0,-9.213244E-1,-5.0138646E-1,-9.161814E-2,3.2836112E-1,7.5055903E-1,1.2949656E0,2.0294068E0,-1.3040341E0,-1.1783521E0,-1.0345349E0,-8.373218E-1,-6.451048E-1,-4.1859642E-1,-2.0794137E-1,2.0658603E-2,4.8019055E-1,2.4263674E-1,2.887648E-1,7.9561526E-1,1.1604161E0,1.4892256E0,1.8499026E0,2.345696E0,-1.3053219E0,-4.2419955E-1,-1.2867308E0,-1.1163217E0,-1.0378658E0,1.0942844E-2,-9.46894E-1,-7.8047335E-1,-7.564282E-1,-5.652707E-1,-5.39901E-1,-3.5616106E-1,-4.0163326E-1,-1.3284491E-1,7.91137E-2,-1.6841385E-1,1.4449122E0,4.4897756E-1,8.679291E-2,3.4305605E-1,4.8643535E-1,-1.0869478E-1,6.82191E-1,8.993587E-1,1.3755041E0,1.0898739E0,1.7422282E0,1.403113E0,1.3517468E0,1.9141346E0,2.1996021E0,2.5995238E0,-1.3384747E-2,-6.530326E-2,4.421461E-3,-3.6236428E-2,-2.906912E-2,-6.467277E-2,-6.0265213E-2,-4.9585372E-2,-3.1221384E-2,-5.259641E-2,-2.5417274E-2,-4.921217E-2,-4.3382715E-2,-3.403655E-2,-3.8291253E-2,1.6131854E-2,-2.1362387E-2,-3.2262277E-2,-5.4694403E-2,-2.5385683E-2,-2.2223098E-2,-1.3554429E-2,-2.6172219E-2,-1.1618252E-2,3.1466287E-2,-7.7239512E-3,9.566053E-3,-3.633902E-4,-2.9609142E-2,-5.4128747E-3,-6.0492754E-4,7.749243E-2,2.3986796E-2,-1.404568E-2,5.167012E-3,-3.1159041E-2,4.8673125E-3,2.147467E-2,-1.0173128E-2,2.9586865E-2,-2.1781435E-2,1.2727583E-2,2.8512081E-2,4.4694733E-2,3.4564335E-2,4.836681E-2,4.2568143E-2,7.329315E-2,3.1777162E-2,5.5505723E-2,5.519097E-2,9.15977E-2,2.4898153E-2,7.1110286E-2,-2.1870537E-2,7.144862E-2,9.874167E-2,8.250916E-2,3.855316E-2,1.1063198E-1,8.645054E-2,1.3342033E-1],"categories":[],"categories_nodes":[],"categories_segments":[],"categories_sizes":[],"default_left":[0,0,0,0,0,0,0,0,0,0,0,0,0,0,0,0,0,0,0,0,0,0,0,0,0,0,0,0,0,0,0,0,0,0,0,0,0,0,0,0,0,0,0,0,0,0,0,0,0,0,0,0,0,0,0,0,0,0,0,0,0,0,0,0,0,0,0,0,0,0,0,0,0,0,0,0,0,0,0,0,0,0,0,0,0,0,0,0,0,0,0,0,0,0,0,0,0,0,0,0,0,0,0,0,0,0,0,0,0,0,0,0,0,0,0,0,0,0,0,0,0,0,0,0,0],"id":9,"left_children":[1,3,5,7,9,11,13,15,17,19,21,23,25,27,29,31,33,35,37,39,41,43,45,47,49,51,53,55,57,59,61,63,65,67,69,71,-1,73,75,77,79,81,83,85,87,89,91,93,95,97,99,101,103,105,107,109,111,113,115,117,119,121,123,-1,-1,-1,-1,-1,-1,-1,-1,-1,-1,-1,-1,-1,-1,-1,-1,-1,-1,-1,-1,-1,-1,-1,-1,-1,-1,-1,-1,-1,-1,-1,-1,-1,-1,-1,-1,-1,-1,-1,-1,-1,-1,-1,-1,-1,-1,-1,-1,-1,-1,-1,-1,-1,-1,-1,-1,-1,-1,-1,-1,-1,-1],"loss_changes":[8.0953047E3,1.2260203E3,1.1822305E3,6.997119E1,1.5037274E2,1.23561646E2,2.514043E2,7.385254E0,9.119263E0,2.0754517E1,2.374809E1,1.7701675E1,2.9128479E1,3.7269043E1,3.4665283E1,6.236572E-1,6.866211E0,2.0766602E0,3.0482483E0,5.2958984E0,8.320572E0,1.2935844E1,1.0247706E1,1.4196396E1,1.3695038E1,1.0030761E1,1.4507141E1,1.194397E1,1.0780029E1,1.1587524E1,3.3673096E0,4.498291E-1,5.262665E-1,1.3491211E0,7.5979614E0,1.9129028E0,0E0,2.824707E0,2.9397736E0,2.9442596E0,3.9078522E0,6.2205353E0,5.4759293E0,5.0124397E0,1.0732553E1,6.8637805E0,5.5187263E0,2.3121529E0,1.0888435E1,4.1175175E0,1.12783165E1,6.2954407E0,5.2174654E0,1.4136902E1,8.779602E0,8.93457E0,5.47406E0,6.570099E0,7.206848E0,8.086151E0,2.989502E0,1.3110962E0,4.2321777E-1,0E0,0E0,0E0,0E0,0E0,0E0,0E0,0E0,0E0,0E0,0E0,0E0,0E0,0E0,0E0,0E0,0E0,0E0,0E0,0E0,0E0,0E0,0E0,0E0,0E0,0E0,0E0,0E0,0E0,0E0,0E0,0E0,0E0,0E0,0E0,0E0,0E0,0E0,0E0,0E0,0E0,0E0,0E0,0E0,0E0,0E0,0E0,0E0,0E0,0E0,0E0,0E0,0E0,0E0,0E0,0E0,0E0,0E0,0E0,0E0,0E0,0E0],"parents":[2147483647,0,0,1,1,2,2,3,3,4,4,5,5,6,6,7,7,8,8,9,9,10,10,11,11,12,12,13,13,14,14,15,15,16,16,17,17,18,18,19,19,20,20,21,21,22,22,23,23,24,24,25,25,26,26,27,27,28,28,29,29,30,30,31,31,32,32,33,33,34,34,35,35,37,37,38,38,39,39,40,40,41,41,42,42,43,43,44,44,45,45,46,46,47,47,48,48,49,49,50,50,51,51,52,52,53,53,54,54,55,55,56,56,57,57,58,58,59,59,60,60,61,61,62,62],"right_children":[2,4,6,8,10,12,14,16,18,20,22,24,26,28,30,32,34,36,38,40,42,44,46,48,50,52,54,56,58,60,62,64,66,68,70,72,-1,74,76,78,80,82,84,86,88,90,92,94,96,98,100,102,104,106,108,110,112,114,116,118,120,122,124,-1,-1,-1,-1,-1,-1,-1,-1,-1,-1,-1,-1,-1,-1,-1,-1,-1,-1,-1,-1,-1,-1,-1,-1,-1,-1,-1,-1,-1,-1,-1,-1,-1,-1,-1,-1,-1,-1,-1,-1,-1,-1,-1,-1,-1,-1,-1,-1,-1,-1,-1,-1,-1,-1,-1,-1,-1,-1,-1,-1,-1,-1],"split_conditions":[-2.8426984E-1,-3.822288E-1,1.1924802E-1,-3.9562583E-1,-3.483388E-1,-1.6537562E-1,1.2441059E0,-6.3380724E-1,-3.9096487E-1,-3.7154055E-1,-3.235336E-1,-4.4503722E-2,-8.598722E-1,5.337767E-1,3.0103815E0,9.8473597E-1,-9.6437925E-1,-8.796376E-2,-4.8233286E-1,-5.2297103E-1,-1.5594786E-1,-7.0724064E-1,-2.6076216E-1,-3.7588906E-1,-2.4964692E-1,6.603477E-2,-5.9022162E-2,-4.3554235E-1,-3.5891023E-1,-2.2090549E-2,5.4620605E0,-9.163592E-2,-1.1003951E0,-1.122549E0,-2.575872E-1,-4.7891414E-1,1.0942844E-2,-2.4911077E0,-3.8697752E-1,1.9120816E0,2.8331104E-1,-9.190122E-2,-3.2832003E-1,-7.86249E-2,-3.9461884E-1,4.215502E-2,-1.4276956E0,-8.2922196E-1,8.6542904E-2,2.097612E-1,-6.314207E-1,-4.5736852E-1,-4.0935647E-2,8.140349E-1,-7.3059875E-1,-1.6934675E-1,-1.111803E0,-7.6433825E-1,-9.917117E-1,-1.0567851E0,1.2360113E0,-3.582427E-1,-8.629615E-1,-1.3384747E-2,-6.530326E-2,4.421461E-3,-3.6236428E-2,-2.906912E-2,-6.467277E-2,-6.0265213E-2,-4.9585372E-2,-3.1221384E-2,-5.259641E-2,-2.5417274E-2,-4.921217E-2,-4.3382715E-2,-3.403655E-2,-3.8291253E-2,1.6131854E-2,-2.1362387E-2,-3.2262277E-2,-5.4694403E-2,-2.5385683E-2,-2.2223098E-2,-1.3554429E-2,-2.6172219E-2,-1.1618252E-2,3.1466287E-2,-7.7239512E-3,9.566053E-3,-3.633902E-4,-2.9609142E-2,-5.4128747E-3,-6.0492754E-4,7.749243E-2,2.3986796E-2,-1.404568E-2,5.167012E-3,-3.1159041E-2,4.8673125E-3,2.147467E-2,-1.0173128E-2,2.9586865E-2,-2.1781435E-2,1.2727583E-2,2.8512081E-2,4.4694733E-2,3.4564335E-2,4.836681E-2,4.2568143E-2,7.329315E-2,3.1777162E-2,5.5505723E-2,5.519097E-2,9.15977E-2,2.4898153E-2,7.1110286E-2,-2.1870537E-2,7.144862E-2,9.874167E-2,8.250916E-2,3.855316E-2,1.1063198E-1,8.645054E-2,1.3342033E-1],"split_indices":[18,18,18,18,18,18,18,1,18,18,18,17,2,18,18,9,11,20,1,3,6,3,19,19,18,19,18,17,17,9,18,5,0,0,0,22,0,11,18,14,15,5,3,5,19,17,2,3,19,5,12,21,18,8,3,2,2,3,2,16,13,10,3,0,0,0,0,0,0,0,0,0,0,0,0,0,0,0,0,0,0,0,0,0,0,0,0,0,0,0,0,0,0,0,0,0,0,0,0,0,0,0,0,0,0,0,0,0,0,0,0,0,0,0,0,0,0,0,0,0,0,0,0,0,0],"split_type":[0,0,0,0,0,0,0,0,0,0,0,0,0,0,0,0,0,0,0,0,0,0,0,0,0,0,0,0,0,0,0,0,0,0,0,0,0,0,0,0,0,0,0,0,0,0,0,0,0,0,0,0,0,0,0,0,0,0,0,0,0,0,0,0,0,0,0,0,0,0,0,0,0,0,0,0,0,0,0,0,0,0,0,0,0,0,0,0,0,0,0,0,0,0,0,0,0,0,0,0,0,0,0,0,0,0,0,0,0,0,0,0,0,0,0,0,0,0,0,0,0,0,0,0,0],"sum_hessian":[1.1859E4,6.904E3,4.955E3,3.321E3,3.583E3,2.778E3,2.177E3,2.272E3,1.049E3,1.766E3,1.817E3,1.368E3,1.41E3,1.491E3,6.86E2,1.038E3,1.234E3,4.42E2,6.07E2,6.43E2,1.123E3,8.92E2,9.25E2,4.92E2,8.76E2,1.26E2,1.284E3,8.85E2,6.06E2,4.42E2,2.44E2,1.036E3,2E0,4.42E2,7.92E2,4.41E2,1E0,2.02E2,4.05E2,2.65E2,3.78E2,3.79E2,7.44E2,2.48E2,6.44E2,7.07E2,2.18E2,1.4E1,4.78E2,3.44E2,5.32E2,8.4E1,4.2E1,6.17E2,6.67E2,2.14E2,6.71E2,1.49E2,4.57E2,5.3E1,3.89E2,1.61E2,8.3E1,1E0,1.035E3,1E0,1E0,5E0,4.37E2,4.57E2,3.35E2,1.6E1,4.25E2,1.7E1,1.85E2,2.12E2,1.93E2,2.63E2,2E0,1.41E2,2.37E2,1.9E1,3.6E2,3.63E2,3.81E2,1.43E2,1.05E2,1.7E1,6.27E2,3.07E2,4E2,2.6E1,1.92E2,1E0,1.3E1,4.59E2,1.9E1,3.37E2,7E0,1.39E2,3.93E2,1.1E1,7.3E1,2.2E1,2E1,4.06E2,2.11E2,1.67E2,5E2,3.3E1,1.81E2,3E1,6.41E2,2E1,1.29E2,1E1,4.47E2,2E0,5.1E1,3.11E2,7.8E1,2E0,1.59E2,8E0,7.5E1],"tree_param":{"num_deleted":"0","num_feature":"24","num_nodes":"125","size_leaf_vector":"1"}},{"base_weights":[4.2890952E-4,-6.287675E-1,9.803093E-1,-1.0567416E0,-2.2143264E-1,6.287595E-1,1.5475076E0,-1.1528922E0,-7.8712755E-1,-3.9836007E-1,8.457858E-3,4.5480114E-1,8.954523E-1,1.3681902E0,2.0783722E0,-1.1917711E0,-1.0333183E0,-8.7930787E-1,-7.009268E-1,-5.3444123E-1,-2.9774725E-1,-8.742382E-2,1.1674105E-1,3.021015E-1,5.554838E-1,6.910178E-1,9.648822E-1,1.2232407E0,1.5396283E0,1.981521E0,2.4721653E0,-9.2446107E-1,-1.2072408E0,-6.393991E-1,-1.0488563E0,7.7214837E-3,-8.843234E-1,-8.522405E-1,-6.2168336E-1,-4.8591906E-1,-6.9786817E-1,-3.6779118E-1,-1.7686608E-1,-4.1154367E-1,-5.064117E-2,2.4582148E-1,-4.7148587E-3,1.1065881E-2,3.4952903E-1,7.943559E-1,4.7040284E-1,8.273155E-1,4.5017865E-1,1.0750601E0,8.322242E-1,1.4258876E0,1.1486076E0,1.1895452E0,1.5961295E0,9.338301E-2,2.1833706E0,1.6521658E0,1.268371E-1,-5.4615993E-2,-2.280205E-2,-6.058975E-2,-3.236664E-2,-5.301238E-2,-1.1601859E-2,-5.2668877E-2,-2.0606551E-2,-5.3830337E-2,-4.3048073E-2,-4.2871516E-2,-1.575917E-4,4.5287246E-3,-3.2240123E-2,-2.9121578E-2,-1.676309E-2,1.0306738E-2,-3.58635E-2,-2.5263881E-2,-1.5219039E-2,-1.5276514E-2,-4.3578013E-3,1.0745774E-3,-3.1421594E-2,1.9591888E-2,-3.804962E-3,5.38465E-3,1.9436166E-2,2.7556173E-3,-8.85208E-3,-2.7822351E-2,4.0939623E-3,1.167213E-2,2.7176185E-2,-1.0312987E-2,4.088071E-2,-9.184795E-3,2.5554357E-2,4.2668607E-2,-1.3809201E-2,1.3473797E-2,3.292861E-2,3.4639247E-2,5.661706E-2,4.9789127E-2,3.873235E-2,5.4540385E-2,7.801406E-2,4.187552E-2,5.8912504E-2,2.341533E-2,6.5415785E-2,8.161973E-2,5.7312932E-2,6.1256874E-2,1.1106948E-1,8.7200336E-2,2.293598E-2],"categories":[],"categories_nodes":[],"categories_segments":[],"categories_sizes":[],"default_left":[0,0,0,0,0,0,0,0,0,0,0,0,0,0,0,0,0,0,0,0,0,0,0,0,0,0,0,0,0,0,0,0,0,0,0,0,0,0,0,0,0,0,0,0,0,0,0,0,0,0,0,0,0,0,0,0,0,0,0,0,0,0,0,0,0,0,0,0,0,0,0,0,0,0,0,0,0,0,0,0,0,0,0,0,0,0,0,0,0,0,0,0,0,0,0,0,0,0,0,0,0,0,0,0,0,0,0,0,0,0,0,0,0,0,0,0,0,0,0,0,0],"id":10,"left_children":[1,3,5,7,9,11,13,15,17,19,21,23,25,27,29,31,33,35,37,39,41,43,45,47,49,51,53,55,57,59,61,63,65,67,69,-1,71,73,75,77,79,81,83,85,87,89,91,93,95,97,99,101,103,105,107,109,111,113,115,-1,117,119,-1,-1,-1,-1,-1,-1,-1,-1,-1,-1,-1,-1,-1,-1,-1,-1,-1,-1,-1,-1,-1,-1,-1,-1,-1,-1,-1,-1,-1,-1,-1,-1,-1,-1,-1,-1,-1,-1,-1,-1,-1,-1,-1,-1,-1,-1,-1,-1,-1,-1,-1,-1,-1,-1,-1,-1,-1,-1,-1],"loss_changes":[7.312748E3,1.2589429E3,9.238369E2,9.039551E1,1.5057826E2,1.3250989E2,1.660293E2,1.0827637E1,6.765503E0,2.848352E1,1.6736208E1,2.652182E1,1.5372314E1,3.1142334E1,1.2111572E1,6.9519043E0,3.2711182E0,2.4437866E0,5.2856293E0,6.7025757E0,1.013768E1,1.0172456E1,1.1869086E1,9.547882E0,2.086438E1,9.147064E0,1.1397339E1,9.3272705E0,1.0068237E1,4.2650146E0,2.5689697E-1,8.229614E0,3.909668E0,4.382799E0,1.3449097E0,0E0,1.0630798E0,7.199707E-1,5.360695E0,9.808472E0,3.6732407E0,6.4893723E0,5.0982294E0,8.184565E0,8.692341E0,7.202284E0,4.0408993E0,3.9839363E0,1.3272606E1,6.522049E0,2.0664581E1,5.526314E0,3.8518581E0,9.200562E0,2.863678E0,6.8992615E0,3.9467773E0,6.92556E0,6.579834E0,0E0,1.8323975E0,1.8645287E-1,0E0,0E0,0E0,0E0,0E0,0E0,0E0,0E0,0E0,0E0,0E0,0E0,0E0,0E0,0E0,0E0,0E0,0E0,0E0,0E0,0E0,0E0,0E0,0E0,0E0,0E0,0E0,0E0,0E0,0E0,0E0,0E0,0E0,0E0,0E0,0E0,0E0,0E0,0E0,0E0,0E0,0E0,0E0,0E0,0E0,0E0,0E0,0E0,0E0,0E0,0E0,0E0,0E0,0E0,0E0,0E0,0E0,0E0,0E0],"parents":[2147483647,0,0,1,1,2,2,3,3,4,4,5,5,6,6,7,7,8,8,9,9,10,10,11,11,12,12,13,13,14,14,15,15,16,16,17,17,18,18,19,19,20,20,21,21,22,22,23,23,24,24,25,25,26,26,27,27,28,28,29,29,30,30,31,31,32,32,33,33,34,34,36,36,37,37,38,38,39,39,40,40,41,41,42,42,43,43,44,44,45,45,46,46,47,47,48,48,49,49,50,50,51,51,52,52,53,53,54,54,55,55,56,56,57,57,58,58,60,60,61,61],"right_children":[2,4,6,8,10,12,14,16,18,20,22,24,26,28,30,32,34,36,38,40,42,44,46,48,50,52,54,56,58,60,62,64,66,68,70,-1,72,74,76,78,80,82,84,86,88,90,92,94,96,98,100,102,104,106,108,110,112,114,116,-1,118,120,-1,-1,-1,-1,-1,-1,-1,-1,-1,-1,-1,-1,-1,-1,-1,-1,-1,-1,-1,-1,-1,-1,-1,-1,-1,-1,-1,-1,-1,-1,-1,-1,-1,-1,-1,-1,-1,-1,-1,-1,-1,-1,-1,-1,-1,-1,-1,-1,-1,-1,-1,-1,-1,-1,-1,-1,-1,-1,-1],"split_conditions":[-2.635326E-1,-3.7928987E-1,2.6390338E-1,-3.9260864E-1,-3.3535445E-1,-5.9022162E-2,1.967646E0,-3.9765984E-1,-3.8697752E-1,-3.6326936E-1,-5.0617907E-2,-2.036609E-1,-7.3059875E-1,7.584895E-1,5.4620605E0,-9.157971E-2,-4.7891414E-1,-2.8744252E0,-6.657151E-1,5.065933E-1,5.0464624E-1,-1.4276956E0,5.055286E-1,-8.389819E-1,-2.3238793E-1,4.8442027E-1,4.0239754E-1,-4.0617862E-1,-1.3671322E-1,7.57567E-1,-8.629615E-1,-1.4063478E-1,1.3747728E0,-8.073892E-1,1.0901468E0,7.7214837E-3,-8.7853354E-1,1.4493431E0,-4.7844595E-1,-2.0374337E-1,-4.7891414E-1,-6.3457096E-1,-4.7885013E-1,-1.7942111E0,-3.8570765E-1,-3.0236465E-1,1.4182614E0,-2.2517863E-1,4.3026343E-1,-8.9606124E-1,-1.3650392E0,3.021153E0,7.481449E-2,-3.2990372E-1,-1.2496852E-1,-3.1634694E-1,-8.7789965E-1,-9.1582245E-1,2.3543491E0,9.338301E-2,-7.63277E-1,1.17646E0,1.268371E-1,-5.4615993E-2,-2.280205E-2,-6.058975E-2,-3.236664E-2,-5.301238E-2,-1.1601859E-2,-5.2668877E-2,-2.0606551E-2,-5.3830337E-2,-4.3048073E-2,-4.2871516E-2,-1.575917E-4,4.5287246E-3,-3.2240123E-2,-2.9121578E-2,-1.676309E-2,1.0306738E-2,-3.58635E-2,-2.5263881E-2,-1.5219039E-2,-1.5276514E-2,-4.3578013E-3,1.0745774E-3,-3.1421594E-2,1.9591888E-2,-3.804962E-3,5.38465E-3,1.9436166E-2,2.7556173E-3,-8.85208E-3,-2.7822351E-2,4.0939623E-3,1.167213E-2,2.7176185E-2,-1.0312987E-2,4.088071E-2,-9.184795E-3,2.5554357E-2,4.2668607E-2,-1.3809201E-2,1.3473797E-2,3.292861E-2,3.4639247E-2,5.661706E-2,4.9789127E-2,3.873235E-2,5.4540385E-2,7.801406E-2,4.187552E-2,5.8912504E-2,2.341533E-2,6.5415785E-2,8.161973E-2,5.7312932E-2,6.1256874E-2,1.1106948E-1,8.7200336E-2,2.293598E-2],"split_indices":[18,18,18,18,18,18,18,18,18,18,3,18,3,18,18,5,22,11,3,14,7,2,17,12,19,0,17,17,2,8,3,1,11,11,21,0,3,11,23,3,22,3,3,10,20,18,14,1,6,12,2,20,18,2,20,4,12,15,14,0,2,2,0,0,0,0,0,0,0,0,0,0,0,0,0,0,0,0,0,0,0,0,0,0,0,0,0,0,0,0,0,0,0,0,0,0,0,0,0,0,0,0,0,0,0,0,0,0,0,0,0,0,0,0,0,0,0,0,0,0,0],"split_type":[0,0,0,0,0,0,0,0,0,0,0,0,0,0,0,0,0,0,0,0,0,0,0,0,0,0,0,0,0,0,0,0,0,0,0,0,0,0,0,0,0,0,0,0,0,0,0,0,0,0,0,0,0,0,0,0,0,0,0,0,0,0,0,0,0,0,0,0,0,0,0,0,0,0,0,0,0,0,0,0,0,0,0,0,0,0,0,0,0,0,0,0,0,0,0,0,0,0,0,0,0,0,0,0,0,0,0,0,0,0,0,0,0,0,0,0,0,0,0,0,0],"sum_hessian":[1.1859E4,7.222E3,4.637E3,3.521E3,3.701E3,2.864E3,1.773E3,2.593E3,9.28E2,2.091E3,1.61E3,1.735E3,1.129E3,1.328E3,4.45E2,1.95E3,6.43E2,4.44E2,4.84E2,8.87E2,1.204E3,8.54E2,7.56E2,6.91E2,1.044E3,2.89E2,8.4E2,7.24E2,6.04E2,3.62E2,8.3E1,1.1E2,1.84E3,2.6E1,6.17E2,2E0,4.42E2,1.63E2,3.21E2,6.87E2,2E2,7.61E2,4.43E2,8.6E1,7.68E2,3.66E2,3.9E2,9.7E1,5.94E2,2.72E2,7.72E2,1.83E2,1.06E2,4.55E2,3.85E2,1.9E2,5.34E2,8.7E1,5.17E2,2.38E2,1.24E2,8E0,7.5E1,8E1,3E1,1.824E3,1.6E1,1.2E1,1.4E1,6.12E2,5E0,4.3E1,3.99E2,1.62E2,1E0,1E1,3.11E2,4.17E2,2.7E2,4E0,1.96E2,2.38E2,5.23E2,1.81E2,2.62E2,2.9E1,5.7E1,4.1E1,7.27E2,1.87E2,1.79E2,2.9E2,1E2,1E1,8.7E1,3.73E2,2.21E2,6E0,2.66E2,4.5E1,7.27E2,1.79E2,4E0,5.8E1,4.8E1,6.1E1,3.94E2,9.6E1,2.89E2,5.7E1,1.33E2,4.9E1,4.85E2,1.3E1,7.4E1,4.76E2,4.1E1,6E0,1.18E2,7E0,1E0],"tree_param":{"num_deleted":"0","num_feature":"24","num_nodes":"121","size_leaf_vector":"1"}},{"base_weights":[4.652577E-4,-6.316829E-1,8.812123E-1,-1.0178506E0,-2.5701025E-1,4.8973042E-1,1.3803155E0,-1.1162305E0,-8.1870604E-1,-4.446319E-1,-8.256032E-2,2.9584843E-1,6.774942E-1,1.1699969E0,1.8350685E0,-1.1794753E0,-1.0621191E0,-9.18757E-1,-7.303857E-1,-5.212413E-1,-3.3019057E-1,-1.7181443E-1,4.0519916E-2,4.588946E-1,2.261484E-1,2.52933E-1,7.189275E-1,1.0490017E0,1.3446783E0,1.649936E0,2.0904136E0,-9.4849306E-1,-1.187058E0,-1.1638654E0,-1.0039403E0,-1.0020669E0,-8.5142803E-1,-8.6103016E-1,-6.706476E-1,-3.5687467E-1,-5.639414E-1,-3.8457334E-1,-1.9393636E-1,-3.2419598E-1,-9.752788E-2,6.91615E-2,-3.164521E-1,1.4673578E0,4.2994225E-1,5.677639E-2,2.964078E-1,4.3822724E-1,-1.1922851E-1,9.060105E-1,6.605297E-1,1.2459025E0,9.844442E-1,1.5812734E0,1.2642549E0,1.0255713E0,1.7028507E0,1.9715451E0,2.3513782E0,-5.58965E-2,-2.4410946E-2,-6.0360264E-2,-5.4930102E-2,-2.5597364E-2,-5.8506932E-2,-5.1069684E-2,-2.248924E-2,-3.777216E-2,-5.1702507E-2,-4.306336E-2,4.2303577E-3,-4.3387424E-2,9.546212E-3,-2.5089255E-2,-3.8864084E-2,-1.2747971E-4,-2.112749E-2,-3.8019594E-2,-2.6304407E-2,-2.4794983E-2,-1.6463308E-2,-2.8464454E-3,-1.5729396E-2,-5.6367964E-2,-1.5089224E-2,3.3484546E-3,-8.901003E-3,7.5652148E-3,-1.1238547E-3,-3.3878442E-2,-8.567463E-3,7.730601E-2,1.6993338E-2,-8.495181E-3,2.3354342E-2,3.7755226E-3,-2.9832292E-2,4.998234E-3,1.8091055E-2,-1.0508249E-2,2.6872495E-2,-5.2208096E-2,1.2049171E-4,3.0998463E-2,4.7173377E-2,4.0782806E-2,2.7724465E-2,8.856997E-3,6.405094E-2,2.8101025E-2,5.016541E-2,4.9572185E-2,8.32195E-2,1.0141726E-2,6.389479E-2,5.0802818E-3,5.906861E-2,1.0104958E-1,8.19838E-2,1.0234332E-1,8.316355E-2,8.922494E-2,1.2243753E-1],"categories":[],"categories_nodes":[],"categories_segments":[],"categories_sizes":[],"default_left":[0,0,0,0,0,0,0,0,0,0,0,0,0,0,0,0,0,0,0,0,0,0,0,0,0,0,0,0,0,0,0,0,0,0,0,0,0,0,0,0,0,0,0,0,0,0,0,0,0,0,0,0,0,0,0,0,0,0,0,0,0,0,0,0,0,0,0,0,0,0,0,0,0,0,0,0,0,0,0,0,0,0,0,0,0,0,0,0,0,0,0,0,0,0,0,0,0,0,0,0,0,0,0,0,0,0,0,0,0,0,0,0,0,0,0,0,0,0,0,0,0,0,0,0,0,0,0],"id":11,"left_children":[1,3,5,7,9,11,13,15,17,19,21,23,25,27,29,31,33,35,37,39,41,43,45,47,49,51,53,55,57,59,61,63,65,67,69,71,73,75,77,79,81,83,85,87,89,91,93,95,97,99,101,103,105,107,109,111,113,115,117,119,121,123,125,-1,-1,-1,-1,-1,-1,-1,-1,-1,-1,-1,-1,-1,-1,-1,-1,-1,-1,-1,-1,-1,-1,-1,-1,-1,-1,-1,-1,-1,-1,-1,-1,-1,-1,-1,-1,-1,-1,-1,-1,-1,-1,-1,-1,-1,-1,-1,-1,-1,-1,-1,-1,-1,-1,-1,-1,-1,-1,-1,-1,-1,-1,-1,-1],"loss_changes":[6.603761E3,9.987986E2,9.676765E2,6.569824E1,1.14716705E2,1.0096631E2,2.0616309E2,6.526367E0,9.29657E0,1.4635834E1,1.9978447E1,1.54539795E1,2.4638977E1,3.012378E1,2.9027344E1,6.9384766E-1,6.141968E0,2.0916138E0,4.136444E0,6.8874207E0,4.964134E0,1.1899553E1,7.8434334E0,1.1310844E1,1.1419048E1,8.81009E0,1.3440491E1,1.0035828E1,9.550781E0,1.1567993E1,4.204956E0,2.4177246E0,4.5947266E-1,1.2126465E0,7.210388E0,1.0251465E0,2.8081818E0,1.4801941E0,7.1546783E0,4.908968E0,5.549011E0,2.822937E0,3.222002E0,5.8698044E0,9.41283E0,5.3403625E0,2.870646E0,4.5136642E-1,8.969482E0,3.5093277E0,8.688972E0,5.5814476E0,4.840333E0,2.6614685E0,1.5717712E1,7.8422546E0,4.7910156E0,5.7035522E0,6.3720093E0,4.7744217E0,4.1226807E0,1.2858276E0,2.6687622E-1,0E0,0E0,0E0,0E0,0E0,0E0,0E0,0E0,0E0,0E0,0E0,0E0,0E0,0E0,0E0,0E0,0E0,0E0,0E0,0E0,0E0,0E0,0E0,0E0,0E0,0E0,0E0,0E0,0E0,0E0,0E0,0E0,0E0,0E0,0E0,0E0,0E0,0E0,0E0,0E0,0E0,0E0,0E0,0E0,0E0,0E0,0E0,0E0,0E0,0E0,0E0,0E0,0E0,0E0,0E0,0E0,0E0,0E0,0E0,0E0,0E0,0E0,0E0,0E0],"parents":[2147483647,0,0,1,1,2,2,3,3,4,4,5,5,6,6,7,7,8,8,9,9,10,10,11,11,12,12,13,13,14,14,15,15,16,16,17,17,18,18,19,19,20,20,21,21,22,22,23,23,24,24,25,25,26,26,27,27,28,28,29,29,30,30,31,31,32,32,33,33,34,34,35,35,36,36,37,37,38,38,39,39,40,40,41,41,42,42,43,43,44,44,45,45,46,46,47,47,48,48,49,49,50,50,51,51,52,52,53,53,54,54,55,55,56,56,57,57,58,58,59,59,60,60,61,61,62,62],"right_children":[2,4,6,8,10,12,14,16,18,20,22,24,26,28,30,32,34,36,38,40,42,44,46,48,50,52,54,56,58,60,62,64,66,68,70,72,74,76,78,80,82,84,86,88,90,92,94,96,98,100,102,104,106,108,110,112,114,116,118,120,122,124,126,-1,-1,-1,-1,-1,-1,-1,-1,-1,-1,-1,-1,-1,-1,-1,-1,-1,-1,-1,-1,-1,-1,-1,-1,-1,-1,-1,-1,-1,-1,-1,-1,-1,-1,-1,-1,-1,-1,-1,-1,-1,-1,-1,-1,-1,-1,-1,-1,-1,-1,-1,-1,-1,-1,-1,-1,-1,-1,-1,-1,-1,-1,-1,-1],"split_conditions":[-2.8426984E-1,-3.8085303E-1,1.1924802E-1,-3.9562583E-1,-3.483388E-1,-1.6537562E-1,1.2441059E0,-6.3380724E-1,-3.900137E-1,-3.6326936E-1,-3.184919E-1,-3.1808752E-1,-8.598722E-1,5.337767E-1,2.6342697E0,-9.109882E-2,-9.6437925E-1,-3.0734178E-1,-7.0724064E-1,-8.409047E-1,8.1805104E-1,-6.3457096E-1,-5.3677954E-2,-3.7748224E-1,-2.5811616E-1,6.603477E-2,-1.3058879E0,-4.3554235E-1,-3.5891023E-1,-4.0952954E-1,5.4620605E0,-4.6982345E-1,-3.9846158E-1,-1.122549E0,-2.6072553E-1,-1.1676353E0,8.3604795E-1,8.3707505E-1,-7.8164555E-2,-9.6106476E-1,-3.8503847E-1,-6.397616E-1,6.921784E-1,-2.4152598E0,-1.9060606E-1,4.224508E-1,-1.10692166E-1,1.933447E-1,-1.111803E0,2.097612E-1,-6.314207E-1,-4.5736852E-1,-1.4951167E-1,-9.3959457E-1,-1.5923294E-1,-1.5791153E0,-1.111803E0,-7.6433825E-1,-1.0184836E0,-3.0196956E-1,-8.007982E-1,3.7604845E0,7.344671E-2,-5.58965E-2,-2.4410946E-2,-6.0360264E-2,-5.4930102E-2,-2.5597364E-2,-5.8506932E-2,-5.1069684E-2,-2.248924E-2,-3.777216E-2,-5.1702507E-2,-4.306336E-2,4.2303577E-3,-4.3387424E-2,9.546212E-3,-2.5089255E-2,-3.8864084E-2,-1.2747971E-4,-2.112749E-2,-3.8019594E-2,-2.6304407E-2,-2.4794983E-2,-1.6463308E-2,-2.8464454E-3,-1.5729396E-2,-5.6367964E-2,-1.5089224E-2,3.3484546E-3,-8.901003E-3,7.5652148E-3,-1.1238547E-3,-3.3878442E-2,-8.567463E-3,7.730601E-2,1.6993338E-2,-8.495181E-3,2.3354342E-2,3.7755226E-3,-2.9832292E-2,4.998234E-3,1.8091055E-2,-1.0508249E-2,2.6872495E-2,-5.2208096E-2,1.2049171E-4,3.0998463E-2,4.7173377E-2,4.0782806E-2,2.7724465E-2,8.856997E-3,6.405094E-2,2.8101025E-2,5.016541E-2,4.9572185E-2,8.32195E-2,1.0141726E-2,6.389479E-2,5.0802818E-3,5.906861E-2,1.0104958E-1,8.19838E-2,1.0234332E-1,8.316355E-2,8.922494E-2,1.2243753E-1],"split_indices":[18,18,18,18,18,18,18,1,18,18,18,17,2,18,18,5,11,6,3,17,7,3,20,19,18,19,0,17,17,2,18,21,18,0,20,0,21,12,17,0,19,3,2,9,17,17,1,3,2,5,12,21,18,14,20,2,2,3,9,14,17,20,2,0,0,0,0,0,0,0,0,0,0,0,0,0,0,0,0,0,0,0,0,0,0,0,0,0,0,0,0,0,0,0,0,0,0,0,0,0,0,0,0,0,0,0,0,0,0,0,0,0,0,0,0,0,0,0,0,0,0,0,0,0,0,0,0],"split_type":[0,0,0,0,0,0,0,0,0,0,0,0,0,0,0,0,0,0,0,0,0,0,0,0,0,0,0,0,0,0,0,0,0,0,0,0,0,0,0,0,0,0,0,0,0,0,0,0,0,0,0,0,0,0,0,0,0,0,0,0,0,0,0,0,0,0,0,0,0,0,0,0,0,0,0,0,0,0,0,0,0,0,0,0,0,0,0,0,0,0,0,0,0,0,0,0,0,0,0,0,0,0,0,0,0,0,0,0,0,0,0,0,0,0,0,0,0,0,0,0,0,0,0,0,0,0,0],"sum_hessian":[1.1859E4,6.904E3,4.955E3,3.399E3,3.505E3,2.778E3,2.177E3,2.272E3,1.127E3,1.688E3,1.817E3,1.368E3,1.41E3,1.491E3,6.86E2,1.038E3,1.234E3,5.24E2,6.03E2,1.009E3,6.79E2,1.053E3,7.64E2,4.08E2,9.6E2,1.26E2,1.284E3,8.85E2,6.06E2,4.02E2,2.84E2,3.7E1,1.001E3,4.42E2,7.92E2,2.28E2,2.96E2,1.85E2,4.18E2,2.1E2,7.99E2,4.84E2,1.95E2,3.44E2,7.09E2,7.08E2,5.6E1,1E1,3.98E2,2.82E2,6.78E2,8.4E1,4.2E1,3.02E2,9.82E2,2.14E2,6.71E2,1.49E2,4.57E2,3.3E1,3.69E2,2.01E2,8.3E1,2.6E1,1.1E1,8.05E2,1.96E2,5E0,4.37E2,7.67E2,2.5E1,2.9E1,1.99E2,2.93E2,3E0,1.84E2,1E0,1.64E2,2.54E2,3.3E1,1.77E2,1.26E2,6.73E2,1.58E2,3.26E2,9.2E1,1.03E2,8E0,3.36E2,2.33E2,4.76E2,3.73E2,3.35E2,1.5E1,4.1E1,9E0,1E0,2.3E1,3.75E2,2.75E2,7E0,1.7E2,5.08E2,1.1E1,7.3E1,4E0,3.8E1,3.7E1,2.65E2,3.96E2,5.86E2,7E0,2.07E2,3E1,6.41E2,2E1,1.29E2,6E0,4.51E2,5E0,2.8E1,5.6E1,3.13E2,1.57E2,4.4E1,1.5E1,6.8E1],"tree_param":{"num_deleted":"0","num_feature":"24","num_nodes":"127","size_leaf_vector":"1"}},{"base_weights":[4.742021E-4,-5.677463E-1,8.8539356E-1,-9.5412004E-1,-2.0000555E-1,6.014293E-1,1.4601539E0,-1.040896E0,-7.1079266E-1,-3.601196E-1,8.038273E-3,4.090255E-1,8.4461796E-1,1.2868444E0,1.8796622E0,-1.0749975E0,-9.2700726E-1,-7.9506636E-1,-6.3200384E-1,-4.820301E-1,-2.699813E-1,-9.968455E-2,9.2822276E-2,2.4178919E-1,4.8866615E-1,5.589872E-1,8.8981694E-1,1.1777372E0,1.4210722E0,1.7919496E0,2.236329E0,-6.499605E-1,-1.0829388E0,-4.9751484E-1,-9.415994E-1,8.3004115E-3,-7.9978E-1,-6.493749E-1,-4.4418704E-2,-7.33558E-1,-4.5097247E-1,-3.3422622E-1,-1.5911508E-1,-3.637762E-1,-6.6515364E-2,-1.1432351E-2,2.3158859E-1,-2.9766163E-1,2.8037462E-1,6.506827E-1,3.6213264E-1,8.443479E-1,2.9917085E-1,7.923981E-1,9.9770635E-1,1.4372362E0,1.1185743E0,1.2343465E0,1.5348674E0,1.6031029E0,1.8967355E0,1.4840323E0,2.2959914E0,-4.7537096E-2,-5.266379E-3,-5.4276317E-2,-3.1405569E-3,-4.6210967E-2,-9.383405E-3,-5.0394285E-2,-4.42648E-2,-4.906225E-2,-3.8890973E-2,-7.039784E-3,-3.334748E-2,-1.4408837E-2,7.505315E-3,-1.9645946E-2,-4.849276E-2,2.5515964E-2,-2.2947485E-2,-2.3678899E-2,-1.4121585E-2,-1.3873005E-2,-3.8306762E-3,-9.974838E-3,-4.99079E-2,-1.091533E-2,-5.987674E-4,3.3536248E-2,-1.8008158E-3,5.7623917E-3,1.8741762E-2,2.686896E-3,-3.6745224E-2,5.7671526E-3,1.864308E-2,2.4045799E-2,3.895631E-2,1.0837448E-2,2.324407E-2,4.300187E-2,-1.38004515E-2,-5.1083423E-2,1.6808718E-2,4.3778624E-2,3.3597328E-2,6.1043162E-2,4.5956716E-2,5.2240323E-2,8.162767E-2,4.6646595E-2,5.8881488E-2,-3.204196E-2,6.239006E-2,8.068756E-2,6.148498E-2,8.106905E-2,3.9996877E-2,9.987046E-2,8.366852E-2,7.8651406E-2,1.9301647E-2,4.7367584E-2,1.1598196E-1],"categories":[],"categories_nodes":[],"categories_segments":[],"categories_sizes":[],"default_left":[0,0,0,0,0,0,0,0,0,0,0,0,0,0,0,0,0,0,0,0,0,0,0,0,0,0,0,0,0,0,0,0,0,0,0,0,0,0,0,0,0,0,0,0,0,0,0,0,0,0,0,0,0,0,0,0,0,0,0,0,0,0,0,0,0,0,0,0,0,0,0,0,0,0,0,0,0,0,0,0,0,0,0,0,0,0,0,0,0,0,0,0,0,0,0,0,0,0,0,0,0,0,0,0,0,0,0,0,0,0,0,0,0,0,0,0,0,0,0,0,0,0,0,0,0],"id":12,"left_children":[1,3,5,7,9,11,13,15,17,19,21,23,25,27,29,31,33,35,37,39,41,43,45,47,49,51,53,55,57,59,61,63,65,67,69,-1,71,73,75,77,79,81,83,85,87,89,91,93,95,97,99,101,103,105,107,109,111,113,115,117,119,121,123,-1,-1,-1,-1,-1,-1,-1,-1,-1,-1,-1,-1,-1,-1,-1,-1,-1,-1,-1,-1,-1,-1,-1,-1,-1,-1,-1,-1,-1,-1,-1,-1,-1,-1,-1,-1,-1,-1,-1,-1,-1,-1,-1,-1,-1,-1,-1,-1,-1,-1,-1,-1,-1,-1,-1,-1,-1,-1,-1,-1,-1,-1],"loss_changes":[5.9640586E3,1.0260918E3,7.5609644E2,7.36272E1,1.2331926E2,1.449856E2,1.0903735E2,9.077637E0,5.665924E0,2.2858429E1,1.4722793E1,2.3003296E1,1.7202576E1,1.4260376E1,9.945435E0,6.0131836E0,3.3231812E0,2.1486816E0,4.9215393E0,6.606125E0,8.529541E0,6.1951942E0,1.30519085E1,1.1781448E1,2.3852478E1,1.3834251E1,1.1632751E1,7.696106E0,8.368469E0,4.142578E0,3.6291504E-1,6.288662E0,5.0844727E0,2.7352395E0,1.2872925E0,0E0,1.0021667E0,4.115967E0,7.5451267E-1,7.346161E0,6.315277E0,5.3660965E0,4.3138037E0,8.033926E0,5.229521E0,8.677546E0,6.4063206E0,5.8780756E0,7.970211E0,1.0833298E1,9.788185E0,1.8193893E0,5.2799034E0,5.683258E0,8.644226E0,6.6489563E0,4.360962E0,5.5429077E0,5.1411133E0,6.995239E-1,1.7846069E0,2.722149E-1,2.2628784E-1,0E0,0E0,0E0,0E0,0E0,0E0,0E0,0E0,0E0,0E0,0E0,0E0,0E0,0E0,0E0,0E0,0E0,0E0,0E0,0E0,0E0,0E0,0E0,0E0,0E0,0E0,0E0,0E0,0E0,0E0,0E0,0E0,0E0,0E0,0E0,0E0,0E0,0E0,0E0,0E0,0E0,0E0,0E0,0E0,0E0,0E0,0E0,0E0,0E0,0E0,0E0,0E0,0E0,0E0,0E0,0E0,0E0,0E0,0E0,0E0,0E0,0E0],"parents":[2147483647,0,0,1,1,2,2,3,3,4,4,5,5,6,6,7,7,8,8,9,9,10,10,11,11,12,12,13,13,14,14,15,15,16,16,17,17,18,18,19,19,20,20,21,21,22,22,23,23,24,24,25,25,26,26,27,27,28,28,29,29,30,30,31,31,32,32,33,33,34,34,36,36,37,37,38,38,39,39,40,40,41,41,42,42,43,43,44,44,45,45,46,46,47,47,48,48,49,49,50,50,51,51,52,52,53,53,54,54,55,55,56,56,57,57,58,58,59,59,60,60,61,61,62,62],"right_children":[2,4,6,8,10,12,14,16,18,20,22,24,26,28,30,32,34,36,38,40,42,44,46,48,50,52,54,56,58,60,62,64,66,68,70,-1,72,74,76,78,80,82,84,86,88,90,92,94,96,98,100,102,104,106,108,110,112,114,116,118,120,122,124,-1,-1,-1,-1,-1,-1,-1,-1,-1,-1,-1,-1,-1,-1,-1,-1,-1,-1,-1,-1,-1,-1,-1,-1,-1,-1,-1,-1,-1,-1,-1,-1,-1,-1,-1,-1,-1,-1,-1,-1,-1,-1,-1,-1,-1,-1,-1,-1,-1,-1,-1,-1,-1,-1,-1,-1,-1,-1,-1,-1,-1,-1],"split_conditions":[-2.635326E-1,-3.7928987E-1,3.7491426E-1,-3.9260864E-1,-3.3535445E-1,-5.9022162E-2,1.967646E0,-3.9738706E-1,-3.8697752E-1,-3.6326936E-1,-2.8938982E-1,-5.8006865E-1,-4.656592E-1,8.9293337E-1,5.4620605E0,-9.208663E-2,-4.7891414E-1,-2.8744252E0,1.3747728E0,-1.3940873E0,5.0464624E-1,-1.4276956E0,9.402812E-2,-1.6979012E0,1.4671846E-1,-7.9000676E-1,1.1924802E-1,-6.2031883E-1,-4.8663616E-1,-4.5030132E-1,-8.629615E-1,7.65128E-1,-2.3581882E-1,-8.073892E-1,-8.846737E-1,8.3004115E-3,-8.7853354E-1,-4.7844595E-1,-3.8479912E-1,-1.6983079E0,-4.7988662E-1,-7.124314E-1,-4.7885013E-1,-2.8445664E-1,-3.235336E-1,-3.796298E-1,-3.0236465E-1,-1.1357601E0,-8.4676546E-1,-1.9298927E-1,-2.036609E-1,2.0464222E0,-4.5736852E-1,6.603477E-2,2.159475E-2,-2.5318372E-1,5.2561253E-2,-2.5078628E0,1.1360756E0,1.3540093E0,7.026676E-1,1.17646E0,-1.0033036E0,-4.7537096E-2,-5.266379E-3,-5.4276317E-2,-3.1405569E-3,-4.6210967E-2,-9.383405E-3,-5.0394285E-2,-4.42648E-2,-4.906225E-2,-3.8890973E-2,-7.039784E-3,-3.334748E-2,-1.4408837E-2,7.505315E-3,-1.9645946E-2,-4.849276E-2,2.5515964E-2,-2.2947485E-2,-2.3678899E-2,-1.4121585E-2,-1.3873005E-2,-3.8306762E-3,-9.974838E-3,-4.99079E-2,-1.091533E-2,-5.987674E-4,3.3536248E-2,-1.8008158E-3,5.7623917E-3,1.8741762E-2,2.686896E-3,-3.6745224E-2,5.7671526E-3,1.864308E-2,2.4045799E-2,3.895631E-2,1.0837448E-2,2.324407E-2,4.300187E-2,-1.38004515E-2,-5.1083423E-2,1.6808718E-2,4.3778624E-2,3.3597328E-2,6.1043162E-2,4.5956716E-2,5.2240323E-2,8.162767E-2,4.6646595E-2,5.8881488E-2,-3.204196E-2,6.239006E-2,8.068756E-2,6.148498E-2,8.106905E-2,3.9996877E-2,9.987046E-2,8.366852E-2,7.8651406E-2,1.9301647E-2,4.7367584E-2,1.1598196E-1],"split_indices":[18,18,18,18,18,18,18,18,18,18,3,3,2,18,18,5,22,11,11,9,7,2,6,2,17,8,18,17,3,3,3,11,19,11,2,0,3,23,6,11,21,3,3,6,18,19,18,11,12,18,18,3,21,19,19,4,2,1,15,8,16,2,15,0,0,0,0,0,0,0,0,0,0,0,0,0,0,0,0,0,0,0,0,0,0,0,0,0,0,0,0,0,0,0,0,0,0,0,0,0,0,0,0,0,0,0,0,0,0,0,0,0,0,0,0,0,0,0,0,0,0,0,0,0,0],"split_type":[0,0,0,0,0,0,0,0,0,0,0,0,0,0,0,0,0,0,0,0,0,0,0,0,0,0,0,0,0,0,0,0,0,0,0,0,0,0,0,0,0,0,0,0,0,0,0,0,0,0,0,0,0,0,0,0,0,0,0,0,0,0,0,0,0,0,0,0,0,0,0,0,0,0,0,0,0,0,0,0,0,0,0,0,0,0,0,0,0,0,0,0,0,0,0,0,0,0,0,0,0,0,0,0,0,0,0,0,0,0,0,0,0,0,0,0,0,0,0,0,0,0,0,0,0],"sum_hessian":[1.1859E4,7.222E3,4.637E3,3.521E3,3.701E3,3.105E3,1.532E3,2.593E3,9.28E2,2.091E3,1.61E3,1.735E3,1.37E3,1.087E3,4.45E2,1.989E3,6.04E2,4.44E2,4.84E2,8.87E2,1.204E3,7.09E2,9.01E2,5.61E2,1.174E3,1.89E2,1.181E3,6.05E2,4.82E2,3.62E2,8.3E1,3.8E1,1.951E3,2.1E1,5.83E2,2E0,4.42E2,4.7E2,1.4E1,9.5E1,7.92E2,7.61E2,4.43E2,7.8E1,6.31E2,5.15E2,3.86E2,3.7E1,5.24E2,5.13E2,6.61E2,8.9E1,1E2,6.25E2,5.56E2,1.08E2,4.97E2,1.87E2,2.95E2,1.35E2,2.27E2,8E0,7.5E1,2.4E1,1.4E1,1.946E3,5E0,8E0,1.3E1,2.6E2,3.23E2,4.3E1,3.99E2,1.6E1,4.54E2,6E0,8E0,4E1,5.5E1,6E0,7.86E2,2.04E2,5.57E2,1.81E2,2.62E2,6.3E1,1.5E1,1.66E2,4.65E2,1.7E1,4.98E2,2.14E2,1.72E2,2.1E1,1.6E1,1.89E2,3.35E2,2.23E2,2.9E2,2.75E2,3.86E2,8.8E1,1E0,2E0,9.8E1,3.66E2,2.59E2,1.41E2,4.15E2,3.8E1,7E1,1.24E2,3.73E2,1E0,1.86E2,2.31E2,6.4E1,1.31E2,4E0,1.51E2,7.6E1,7E0,1E0,2E0,7.3E1],"tree_param":{"num_deleted":"0","num_feature":"24","num_nodes":"125","size_leaf_vector":"1"}},{"base_weights":[5.1126635E-4,-5.905883E-1,7.689291E-1,-9.269367E-1,-2.6013008E-1,4.1934592E-1,1.2468855E0,-1.0077497E0,-7.511132E-1,-4.3756324E-1,-1.20908536E-1,2.1903434E-1,5.898917E-1,1.0562438E0,1.6590989E0,-1.0671198E0,-9.569858E-1,-8.4381896E-1,-6.8233067E-1,-5.4307944E-1,-3.7305173E-1,-2.6900014E-1,-5.6132026E-2,4.56646E-1,1.8414196E-1,7.96097E-2,6.1583704E-1,9.467669E-1,1.2143002E0,1.5096477E0,1.9225589E0,-8.504359E-1,-1.0742724E0,-1.052892E0,-9.022021E-1,-9.209469E-1,-7.677214E-1,-7.8537744E-1,-6.2912667E-1,-6.965285E-1,-4.9052164E-1,-3.3092704E-1,-5.788535E-1,-5.363119E-1,-2.2108749E-1,-1.1662632E-1,9.966988E-2,5.09323E-1,-3.1110168E-2,6.4206295E-2,2.5802374E-1,3.023848E-1,-2.7508673E-1,5.193759E-1,7.1959716E-1,1.6126636E0,9.2873627E-1,1.4334269E0,1.1398826E0,1.0768422E0,1.5657039E0,1.6284845E0,2.0132918E0,-5.1221102E-2,-2.1852275E-2,-5.4635543E-2,-4.9669027E-2,-2.2398695E-2,-5.2938737E-2,-1.5097739E-2,-4.5867093E-2,-4.6358407E-2,-8.612779E-3,-2.881363E-4,-3.958606E-2,-1.9523554E-2,-4.096859E-2,-1.15387505E-2,-3.2190926E-2,-3.2456126E-2,-4.922034E-2,-2.5223643E-2,-6.395214E-4,-2.9619573E-2,-1.4926153E-2,-7.130653E-2,-2.4917169E-2,-2.0323558E-2,-4.89806E-2,-7.379894E-3,-1.8011786E-2,2.6590306E-2,-6.5200636E-3,9.501315E-3,-4.625533E-3,6.753844E-2,2.3934802E-2,2.2407196E-2,-1.2495564E-2,1.5250916E-2,1.1080869E-3,6.537655E-3,1.9128134E-2,3.6809504E-2,7.8718085E-3,7.297209E-3,-2.5697548E-2,3.7736494E-2,2.2120258E-2,4.0030252E-2,3.0039955E-2,8.6561725E-2,3.2314323E-2,1.703525E-2,4.7148187E-2,4.4544853E-2,7.5502E-2,1.7310662E-2,5.784128E-2,-2.3496976E-2,5.7268556E-2,8.036467E-2,6.2537484E-2,2.8361201E-2,8.269906E-2,8.274512E-2,1.0463909E-1],"categories":[],"categories_nodes":[],"categories_segments":[],"categories_sizes":[],"default_left":[0,0,0,0,0,0,0,0,0,0,0,0,0,0,0,0,0,0,0,0,0,0,0,0,0,0,0,0,0,0,0,0,0,0,0,0,0,0,0,0,0,0,0,0,0,0,0,0,0,0,0,0,0,0,0,0,0,0,0,0,0,0,0,0,0,0,0,0,0,0,0,0,0,0,0,0,0,0,0,0,0,0,0,0,0,0,0,0,0,0,0,0,0,0,0,0,0,0,0,0,0,0,0,0,0,0,0,0,0,0,0,0,0,0,0,0,0,0,0,0,0,0,0,0,0,0,0],"id":13,"left_children":[1,3,5,7,9,11,13,15,17,19,21,23,25,27,29,31,33,35,37,39,41,43,45,47,49,51,53,55,57,59,61,63,65,67,69,71,73,75,77,79,81,83,85,87,89,91,93,95,97,99,101,103,105,107,109,111,113,115,117,119,121,123,125,-1,-1,-1,-1,-1,-1,-1,-1,-1,-1,-1,-1,-1,-1,-1,-1,-1,-1,-1,-1,-1,-1,-1,-1,-1,-1,-1,-1,-1,-1,-1,-1,-1,-1,-1,-1,-1,-1,-1,-1,-1,-1,-1,-1,-1,-1,-1,-1,-1,-1,-1,-1,-1,-1,-1,-1,-1,-1,-1,-1,-1,-1,-1,-1],"loss_changes":[5.387402E3,7.4490234E2,8.6113696E2,4.6444824E1,8.351572E1,1.0167438E2,1.69406E2,5.8293457E0,6.119568E0,9.919434E0,1.8182554E1,1.1290947E1,2.1253296E1,2.4667114E1,2.4147827E1,6.9677734E-1,5.5389404E0,1.8930664E0,2.8392334E0,4.1908264E0,7.8362427E0,7.2714233E0,1.2462215E1,4.512211E0,1.0598984E1,6.3255677E0,1.4949768E1,9.140015E0,8.264343E0,9.061707E0,3.258606E0,2.2854023E0,4.0893555E-1,1.1020813E0,6.9294434E0,8.417206E-1,4.1831207E0,2.405243E0,2.2275543E0,1.2852402E0,2.8061447E0,6.3554535E0,9.93074E0,4.6094E0,4.9677696E0,8.572728E0,6.4425344E0,3.4252014E0,1.9995002E0,4.630414E0,1.1694939E1,2.9651914E0,3.1926541E0,1.410405E1,6.5923157E0,1.4019814E0,6.9155273E0,4.889435E0,5.7581787E0,6.2622147E0,3.0982666E0,7.6651E-1,1.75E0,0E0,0E0,0E0,0E0,0E0,0E0,0E0,0E0,0E0,0E0,0E0,0E0,0E0,0E0,0E0,0E0,0E0,0E0,0E0,0E0,0E0,0E0,0E0,0E0,0E0,0E0,0E0,0E0,0E0,0E0,0E0,0E0,0E0,0E0,0E0,0E0,0E0,0E0,0E0,0E0,0E0,0E0,0E0,0E0,0E0,0E0,0E0,0E0,0E0,0E0,0E0,0E0,0E0,0E0,0E0,0E0,0E0,0E0,0E0,0E0,0E0,0E0,0E0,0E0],"parents":[2147483647,0,0,1,1,2,2,3,3,4,4,5,5,6,6,7,7,8,8,9,9,10,10,11,11,12,12,13,13,14,14,15,15,16,16,17,17,18,18,19,19,20,20,21,21,22,22,23,23,24,24,25,25,26,26,27,27,28,28,29,29,30,30,31,31,32,32,33,33,34,34,35,35,36,36,37,37,38,38,39,39,40,40,41,41,42,42,43,43,44,44,45,45,46,46,47,47,48,48,49,49,50,50,51,51,52,52,53,53,54,54,55,55,56,56,57,57,58,58,59,59,60,60,61,61,62,62],"right_children":[2,4,6,8,10,12,14,16,18,20,22,24,26,28,30,32,34,36,38,40,42,44,46,48,50,52,54,56,58,60,62,64,66,68,70,72,74,76,78,80,82,84,86,88,90,92,94,96,98,100,102,104,106,108,110,112,114,116,118,120,122,124,126,-1,-1,-1,-1,-1,-1,-1,-1,-1,-1,-1,-1,-1,-1,-1,-1,-1,-1,-1,-1,-1,-1,-1,-1,-1,-1,-1,-1,-1,-1,-1,-1,-1,-1,-1,-1,-1,-1,-1,-1,-1,-1,-1,-1,-1,-1,-1,-1,-1,-1,-1,-1,-1,-1,-1,-1,-1,-1,-1,-1,-1,-1,-1,-1],"split_conditions":[-2.9416108E-1,-3.822288E-1,1.1924802E-1,-3.9562583E-1,-3.5529706E-1,-1.8863665E-1,1.2441059E0,-6.3380724E-1,-3.9096487E-1,-3.731274E-1,-6.50143E-1,-1.1101913E0,-1.3650392E0,5.337767E-1,3.0103815E0,-9.109882E-2,-9.6437925E-1,-1.476801E-1,-4.8233286E-1,-7.74119E-1,8.0776936E-1,-1.4276956E0,7.282553E-1,1.30572505E-2,-5.0220823E-1,6.603477E-2,-6.747717E-2,-1.5234318E0,-3.5891023E-1,-2.2090549E-2,-5.930454E-1,7.290395E-1,-3.9846158E-1,-1.122549E0,-9.174637E-1,8.764502E-1,-1.1773749E-1,-2.4911077E0,-4.7822264E-1,-1.313744E-1,1.4048625E0,-8.882777E-1,-3.9831683E-1,-2.4572797E-1,3.8377666E-1,-3.9831683E-1,9.012685E-1,-3.9786756E-1,1.3606445E-1,-1.122549E0,-1.0489643E-1,-3.4965077E-1,-1.0860466E0,-2.3238793E-1,6.603477E-2,1.4981678E-1,-1.5791153E0,-7.6433825E-1,-9.917117E-1,-1.0567851E0,1.1182948E0,-3.582427E-1,8.912081E-2,-5.1221102E-2,-2.1852275E-2,-5.4635543E-2,-4.9669027E-2,-2.2398695E-2,-5.2938737E-2,-1.5097739E-2,-4.5867093E-2,-4.6358407E-2,-8.612779E-3,-2.881363E-4,-3.958606E-2,-1.9523554E-2,-4.096859E-2,-1.15387505E-2,-3.2190926E-2,-3.2456126E-2,-4.922034E-2,-2.5223643E-2,-6.395214E-4,-2.9619573E-2,-1.4926153E-2,-7.130653E-2,-2.4917169E-2,-2.0323558E-2,-4.89806E-2,-7.379894E-3,-1.8011786E-2,2.6590306E-2,-6.5200636E-3,9.501315E-3,-4.625533E-3,6.753844E-2,2.3934802E-2,2.2407196E-2,-1.2495564E-2,1.5250916E-2,1.1080869E-3,6.537655E-3,1.9128134E-2,3.6809504E-2,7.8718085E-3,7.297209E-3,-2.5697548E-2,3.7736494E-2,2.2120258E-2,4.0030252E-2,3.0039955E-2,8.6561725E-2,3.2314323E-2,1.703525E-2,4.7148187E-2,4.4544853E-2,7.5502E-2,1.7310662E-2,5.784128E-2,-2.3496976E-2,5.7268556E-2,8.036467E-2,6.2537484E-2,2.8361201E-2,8.269906E-2,8.274512E-2,1.0463909E-1],"split_indices":[18,18,18,18,18,18,18,1,18,18,3,17,2,18,18,5,11,1,1,12,14,2,7,20,3,19,18,17,17,9,3,4,18,0,3,5,1,11,23,23,11,12,19,6,17,19,9,20,0,0,6,20,11,19,19,20,2,3,2,16,15,10,7,0,0,0,0,0,0,0,0,0,0,0,0,0,0,0,0,0,0,0,0,0,0,0,0,0,0,0,0,0,0,0,0,0,0,0,0,0,0,0,0,0,0,0,0,0,0,0,0,0,0,0,0,0,0,0,0,0,0,0,0,0,0,0,0],"split_type":[0,0,0,0,0,0,0,0,0,0,0,0,0,0,0,0,0,0,0,0,0,0,0,0,0,0,0,0,0,0,0,0,0,0,0,0,0,0,0,0,0,0,0,0,0,0,0,0,0,0,0,0,0,0,0,0,0,0,0,0,0,0,0,0,0,0,0,0,0,0,0,0,0,0,0,0,0,